Layer,Biases
Input-to-Hidden Biases,-0.06226186081767082,-0.02674746699631214,0.14536775648593903,-0.007384878117591143,-0.13517451286315918,0.07101606577634811,0.008613461628556252,0.1563236266374588,0.07578183710575104,-0.21414178609848022,-0.04688040167093277,-0.06484474986791611,-0.1306355744600296,-0.008553857915103436,0.09648673981428146,-0.018118930980563164,0.09414554387331009,-0.06347040832042694,0.15788444876670837,0.1476743519306183,-0.03507383167743683,0.0035279621370136738,0.024748705327510834,0.09217792004346848,0.08643703162670135,-0.08903926610946655,0.15954387187957764,0.009438656270503998,-0.008894452825188637,0.09991826862096786,0.0972534716129303,0.025781070813536644,0.02865244261920452,0.13191206753253937,0.09112702310085297,0.10446137934923172,0.060004714876413345,-0.055153850466012955,-0.06958448141813278,0.024154117330908775,0.0904431864619255,0.02321881614625454,0.01253524236381054,-0.01094548124819994,0.009884919039905071,0.21834635734558105,0.08374691754579544,0.0525129996240139,-0.02949589677155018,-0.07966972887516022,-0.11908164620399475,0.036256659775972366,-0.17081107199192047,-0.14788925647735596,-0.04187393933534622,-0.14666956663131714,-0.03756679594516754,0.09740746766328812,0.19661040604114532,0.017244763672351837,0.004198956768959761,-0.013977917842566967,0.0450417622923851,-0.05590316280722618,0.06779012084007263,-0.07388591021299362,0.10974539071321487,0.06505464762449265,0.09404169023036957,-0.03014345094561577,-0.05271223187446594,0.09898898750543594,-0.043015412986278534,0.22331276535987854,0.12476764619350433,-0.01171928457915783,0.10997284203767776,-0.023342978209257126,-0.08315861225128174,-0.1811421662569046,0.007622325327247381,0.009105181321501732,-0.112996406853199,0.2147381603717804,0.28826266527175903,0.045203957706689835,-0.1453188806772232,-0.014003779739141464,0.07022099941968918,0.08655890822410583,0.11260779947042465,0.23512175679206848,0.02116278186440468,-0.15865923464298248,0.028139861300587654,0.09052138775587082,0.17548611760139465,0.19005855917930603,-0.07188253104686737,-0.062147386372089386,0.01902342028915882,-0.1490999311208725,0.02960147149860859,0.0921342521905899,-0.0645238533616066,0.06154662370681763,-0.03243456780910492,-0.01600636914372444,0.0802040621638298,0.12095420807600021,0.10668028146028519,-0.12158145755529404,-0.06618667393922806,-0.179314523935318,0.06804005056619644,0.12079592794179916,0.0019528591074049473,-0.033328745514154434,-0.053990259766578674,0.04018961265683174,-0.09296268224716187,-0.1628883183002472,0.09553118795156479,0.0691269040107727,-0.013062970712780952,0.047899648547172546,-0.019527073949575424,0.13138069212436676,-0.021911771968007088,-0.090296171605587,0.06028912588953972,0.11417879164218903,-0.27212148904800415,0.19175809621810913,0.23256301879882812,-0.07591398060321808,0.1717086285352707,-0.0797325074672699,0.08710024505853653,0.03911156579852104,-0.1277005523443222,-0.01988455094397068,-0.1461765319108963,-0.2607053220272064,-0.028845293447375298,0.09028612822294235,0.08273852616548538,-0.04840540513396263,-0.009179123677313328,-0.031699903309345245,-0.01592758670449257,0.10471805185079575,0.07124917954206467,-0.08868170529603958,0.14781351387500763,0.13433603942394257,0.14265236258506775,0.04122719541192055,-0.014537131413817406,0.0703958049416542,0.1132575049996376,-0.10603127628564835,-0.07586711645126343,-0.0848599225282669,-0.035857439041137695,-0.03792906925082207,0.12070869654417038,0.11432260274887085,-0.08580518513917923,-0.2003704309463501,0.2923964858055115,-0.005442379973828793,0.0323575921356678,0.11504633724689484,0.02219931036233902,-0.2556232810020447,0.019922874867916107,0.16024957597255707,-0.21082425117492676,0.07745923846960068,0.05377298220992088,0.04269133135676384,0.23006637394428253,-0.10792487859725952,0.007246822118759155,-0.01577940583229065,-0.011242114007472992,-0.00845284666866064,0.02104458212852478,-0.04172755032777786,0.0500652939081192,0.013556922785937786,-0.11074930429458618,-0.06187746673822403,0.1187342181801796,0.0754314586520195,-0.0715993270277977,0.0840449258685112,0.08574444055557251,0.0818810984492302
Hidden-to-Output Biases,-0.16055135428905487,-0.17481426894664764,0.06813490390777588,-0.11560341715812683,0.05613996833562851,-0.000850487151183188,-0.038179878145456314,-0.1559375524520874,0.30520230531692505,0.06592481583356857
