Layer,Weights
Input-to-Hidden,"[0.05763527750968933, -0.003245323896408081, 0.06342880427837372, 0.0682939887046814, -0.005417540669441223, -0.05446552485227585, 0.06714212894439697, 0.048409029841423035, 0.01762405037879944, 0.06838098168373108, 0.04820847511291504, 0.02557355910539627, 0.034895919263362885, 0.03857201337814331, -0.03207436576485634, -0.012465402483940125, 0.02822171151638031, 0.0058433786034584045, 0.04547421634197235, 0.03262343257665634, -0.06634709239006042, 9.122490882873535e-05, -0.03479957580566406, 0.05560991168022156, -0.04101628437638283, 0.028541594743728638, -0.04433656111359596, 0.07029183208942413, -0.01461745798587799, -0.07290859520435333, -0.0718233659863472, 0.07780119776725769, -0.007159098982810974, -0.04293236508965492, -0.012286439538002014, -0.013677842915058136, -0.024037174880504608, -0.03711788356304169, -0.061641886830329895, -0.0590539425611496, -0.0382106676697731, -0.019187428057193756, 0.014232806861400604, 0.05750560760498047, 0.07149599492549896, -0.010981246829032898, 0.015529394149780273, 0.001805923879146576, -0.056171007454395294, -0.010326042771339417, 0.06465333700180054, 0.06629826128482819, 0.06884650886058807, 0.03340468555688858, 0.026414409279823303, -0.04811936616897583, 0.027265295386314392, -0.056173816323280334, -0.0623815543949604, -0.04405383765697479, -0.023543331772089005, 0.0386916846036911, -0.006958559155464172, -0.028063982725143433, 0.04915916919708252, 0.018392890691757202, 0.005497649312019348, -0.06775294244289398, 0.04477769881486893, -0.022652380168437958, 0.041594915091991425, -0.026117965579032898, 0.007202610373497009, 0.035386860370635986, -0.014038234949111938, 0.019672133028507233, -0.03398404270410538, -0.01067052036523819, -0.03303636237978935, -0.014431789517402649, -0.058307088911533356, 0.0013107582926750183, 0.01668432354927063, -0.006952501833438873, 0.008360631763935089, 0.013151995837688446, -0.0340396910905838, 0.0025296881794929504, -0.052302129566669464, 0.04225628077983856, -0.054629191756248474, 0.03889967501163483, -0.003064379096031189, -0.024860955774784088, -0.03449816256761551, 0.019423194229602814, 0.06211137771606445, -0.05945788323879242, -0.013883322477340698, -0.0317959263920784, -0.009488619863986969, -0.03999597951769829, 0.04715143144130707, 0.014613032341003418, -0.0097380131483078, 0.03590937703847885, -0.02007633075118065, -0.05425523966550827, -0.00949917733669281, -0.03528889641165733, -0.04941137880086899, 0.042542628943920135, 0.06411592662334442, -0.0004793629050254822, -0.03862632066011429, 0.01673397421836853, -0.04739625006914139, 0.01234312355518341, 0.009910918772220612, -0.03239555284380913, 0.03958079218864441, -0.04021291062235832, -0.00727400928735733, -0.010050028562545776, 0.027588605880737305, -0.04432157427072525, 0.010049283504486084, 0.035962194204330444, -0.05081235244870186, -0.06392627209424973, 0.06362724304199219, -0.012743473052978516, 0.004387557506561279, 0.04380771517753601, 0.04134564846754074, -0.061409786343574524, -0.013978064060211182, -0.004336096346378326, -0.0009128674864768982, -0.054417140781879425, -0.04265310615301132, -0.036578819155693054, 0.051504939794540405, -0.05685511976480484, -0.01112886518239975, -0.038931943476200104, -0.005552329123020172, -0.021433889865875244, -0.05874314159154892, 0.06323075294494629, -0.06531403213739395, 0.0210254043340683, 0.07287232577800751, -0.07228699326515198, 0.014580242335796356, -0.0777701660990715, -0.014303348958492279, -0.07732558250427246, 0.06848257780075073, 0.058762624859809875, -0.03578544035553932, 0.048528432846069336, 0.04872390627861023, -0.027073055505752563, -0.05120944231748581, 0.0007512867450714111, -0.01893916353583336, -0.005404934287071228, -0.007230333983898163, 0.024380482733249664, 0.027562841773033142, 0.0324215441942215, -0.06649524718523026, -0.030653711408376694, 0.039798058569431305, 0.06350964307785034, 0.0743517130613327, 0.038330212235450745, 0.05982889235019684, 0.017649129033088684, 0.05102059245109558, -0.03828807920217514, 0.05985744297504425, 0.048310697078704834, -0.014836326241493225, 0.05477499961853027, 0.009702585637569427, -0.04717018082737923, 0.012087754905223846, -0.05488555133342743, -0.03773931413888931, 0.07282920181751251, -0.07284659892320633, -0.034103043377399445, 0.06369061768054962, 0.004880674183368683, 0.003756500780582428, -0.0068609267473220825, -0.03638741374015808, 0.06290023028850555]","[0.02783886343240738, 0.07218797504901886, -0.06513964384794235, -0.07600697129964828, -0.002873033285140991, 0.057558536529541016, -0.05154619365930557, -0.014868326485157013, 0.06812125444412231, 0.07745300233364105, 0.07340958714485168, -0.025615576654672623, 0.0476960688829422, 0.009531252086162567, 0.05175997316837311, 0.05446024239063263, 0.03412692993879318, 0.058778151869773865, -0.06859193742275238, 0.02890705317258835, -0.0610194131731987, -0.030100330710411072, 0.06318335235118866, -0.010855503380298615, 0.07541799545288086, 0.007832229137420654, -0.023217584937810898, 0.03783021867275238, 0.048101603984832764, -0.02086615562438965, 0.008707471191883087, -0.012447550892829895, 0.02394157648086548, 0.05070348083972931, -0.07306505739688873, -0.07017526775598526, -0.06991364061832428, -0.041273150593042374, -0.0701720267534256, 0.048638612031936646, 0.01584741473197937, -0.025721434503793716, 0.022172868251800537, 0.06186380982398987, -0.04361497238278389, 0.06366899609565735, -0.018716279417276382, -0.05150054395198822, 0.013392306864261627, -0.0754847377538681, 0.01550281047821045, -0.062035903334617615, -0.023838844150304794, -0.06996377557516098, 0.063439279794693, 0.06262156367301941, -0.022816620767116547, -0.06937656551599503, 0.01864294707775116, 0.05786867439746857, -0.020712673664093018, 0.046880997717380524, -0.07165517657995224, -0.04476599022746086, 0.034968286752700806, -0.009850725531578064, 0.04875476658344269, -0.0629677027463913, -0.021670479327440262, 0.010535791516304016, 0.07450470328330994, 0.022936128079891205, -0.05731586366891861, -0.027379512786865234, 0.001602455973625183, -0.018750309944152832, -0.0325123593211174, 0.054005399346351624, 0.041030675172805786, 0.011685855686664581, 0.07518927752971649, -0.019777003675699234, 0.027542509138584137, -0.013748794794082642, -0.03454723581671715, 0.013117551803588867, 0.020571328699588776, 0.037195540964603424, -0.036696333438158035, 0.01034160703420639, 0.01738683134317398, 0.07567869126796722, 0.04286830127239227, -0.04554751142859459, 0.01215352863073349, 0.02374272048473358, 0.04565199464559555, -0.07756276428699493, 0.0032539591193199158, 0.017189525067806244, 0.05513577163219452, -0.07720369100570679, 0.028581224381923676, 0.05897712707519531, -0.06271858513355255, 0.0718069076538086, 0.020792916417121887, 0.06891952455043793, 0.05061839520931244, -0.07036466151475906, -0.02768120914697647, 0.039726123213768005, 0.04083331674337387, -0.02763701230287552, 0.07246294617652893, 0.03577978163957596, -0.04923374950885773, 0.06326043605804443, 0.07598991692066193, 0.048135802149772644, 0.06082858145236969, 0.06363725662231445, 0.041209347546100616, -0.010363563895225525, 0.06014616787433624, -0.006370455026626587, 0.021354414522647858, 0.022608868777751923, -0.04703192785382271, 0.042603544890880585, -0.05814275145530701, -0.009708397090435028, 0.04627984017133713, -0.07451897859573364, -0.01489381492137909, -0.014566317200660706, 0.007683500647544861, -0.06183534115552902, -0.0644577294588089, -0.0008552223443984985, 0.07378104329109192, -0.015123575925827026, 0.0756499320268631, -0.012644097208976746, 0.055329933762550354, 0.023088380694389343, 0.03448037803173065, 0.005443364381790161, 0.04318569600582123, -0.055254753679037094, -0.005279548466205597, 0.011556729674339294, -0.039442673325538635, 0.02178119868040085, -0.04157402366399765, 0.0692901611328125, 0.024986885488033295, -0.0759604275226593, -0.06691382080316544, 0.03804061561822891, 0.007332503795623779, 0.024655364453792572, -0.04836659133434296, 0.03916512429714203, -0.013530395925045013, 0.06236347556114197, 0.07202903926372528, 0.004970833659172058, 0.03828930854797363, 0.027195647358894348, -0.07496802508831024, 0.058402061462402344, 0.05976255238056183, 0.030841447412967682, -0.022107038646936417, 0.029533319175243378, -0.04166150838136673, -0.0064489394426345825, 0.03324085474014282, 0.04159215837717056, -0.01953110471367836, -0.03704168274998665, 0.05191954970359802, 0.06670333445072174, -0.0065144747495651245, 0.07573665678501129, 0.007675401866436005, -0.060056619346141815, 0.06790642440319061, 0.06724478304386139, -0.0713338628411293, 0.02502313256263733, -0.04428858682513237, 0.023693576455116272, 0.010882928967475891, -0.011589772999286652, 0.0361638218164444, -0.034356649965047836, 0.005625292658805847, -0.06691168248653412]","[0.0134066641330719, -0.024572182446718216, -0.014875233173370361, 0.05425712466239929, 0.0013678744435310364, 0.02424798160791397, -0.06138133630156517, -0.05566098541021347, 0.005168996751308441, 0.03148508816957474, 0.03364215046167374, 0.02629404515028, -0.026938356459140778, -0.04189223423600197, -0.06707268208265305, 0.02665559947490692, -0.06112734228372574, 0.07289350032806396, 0.06713759899139404, 0.07663798332214355, -0.03370923176407814, -0.06644563376903534, 0.0448683500289917, -0.052288688719272614, 0.015049479901790619, 0.004242077469825745, 0.037665776908397675, -0.029929552227258682, 0.008835390210151672, -0.005426511168479919, -0.014030024409294128, 0.030477724969387054, 0.007703527808189392, 0.009557835757732391, -0.050347328186035156, -0.022817589342594147, -0.022075314074754715, 0.03689318895339966, 0.04870806634426117, 0.07749725878238678, -0.029319480061531067, 0.06782647967338562, 0.04474184662103653, 0.0023626163601875305, -0.03225095197558403, -0.013459630310535431, 0.05194315314292908, 0.07573886215686798, 0.02016301453113556, -0.028268828988075256, 0.02918887883424759, 0.03674384206533432, 0.054942891001701355, -0.013941839337348938, -0.030785616487264633, -0.061604093760252, 0.062362104654312134, 0.04500403255224228, -0.03770234063267708, 0.03158264607191086, 0.02701789140701294, -0.05903113633394241, -0.05149836465716362, -0.028807446360588074, -0.01033896952867508, -0.01458333432674408, -0.0779712125658989, 0.07777291536331177, -0.017878849059343338, -0.05789153277873993, 0.06253539025783539, -0.04755451902747154, 0.05524858832359314, -0.03667750954627991, 0.06837642192840576, -0.050669148564338684, 0.03167080134153366, 0.04554075002670288, -0.05451560765504837, -0.006888948380947113, 0.053898125886917114, 0.06771194934844971, 0.06724844872951508, -0.06275144219398499, -0.049370381981134415, -0.04367082566022873, -0.03229924663901329, -0.06074538826942444, 0.06992977857589722, -0.04028067737817764, -0.009987711906433105, -0.062107209116220474, -0.009813062846660614, -0.06627580523490906, -0.04289276897907257, -0.02180592343211174, 0.05135393142700195, -0.05839836969971657, -0.024788442999124527, -0.008905112743377686, 0.007773235440254211, 0.024539470672607422, 0.07708711922168732, 0.017199859023094177, 0.00627889484167099, 0.006402254104614258, 0.00277893990278244, 0.07619155943393707, 0.019686318933963776, 0.01593451201915741, -0.03602355718612671, 0.060661837458610535, 0.07540413737297058, 0.010167762637138367, -0.023372739553451538, -0.01787525787949562, -0.07762662321329117, 0.03195841610431671, 0.054009050130844116, -0.06984759867191315, -0.036585260182619095, -0.06340198963880539, -0.07459516078233719, 0.04635632038116455, 0.02114841341972351, 0.048878416419029236, 0.007675960659980774, -0.07454809546470642, -0.06256452202796936, 0.00022692978382110596, 0.0056616514921188354, 0.0410279780626297, 0.0635928064584732, -0.010034874081611633, -0.05835677683353424, -0.06510259211063385, -0.020239923149347305, 0.008965529501438141, 0.05910947918891907, 0.04436389356851578, 0.023335173726081848, 0.0509398877620697, -0.025133628398180008, 0.06831866502761841, 0.05831053853034973, -0.025992929935455322, -0.013154007494449615, 0.01728806644678116, -0.06241260841488838, -0.03360501304268837, -0.03320794180035591, 0.05090782046318054, 0.03184099495410919, 0.017643101513385773, 0.0055177584290504456, -0.01883004978299141, -0.0440710224211216, -0.01761481910943985, -0.02555614709854126, 0.017455562949180603, 0.05872704088687897, -0.011254347860813141, -0.05003330856561661, -0.021412499248981476, -0.008984290063381195, 0.0023051053285598755, 0.025038622319698334, -0.06366179883480072, -0.05865279585123062, 0.03805208206176758, 0.014827035367488861, -0.03054133802652359, 0.028240233659744263, 0.009911194443702698, -0.04864082485437393, 0.016208425164222717, -0.020193099975585938, -0.048029541969299316, 0.010599590837955475, -0.0010260418057441711, 0.0019218921661376953, 0.06746120750904083, -0.017018690705299377, 0.017218604683876038, 0.05687561631202698, -0.05589917302131653, -0.03909860551357269, 0.06643061339855194, 0.04743871092796326, -0.012585707008838654, 0.02682226151227951, -0.06168578565120697, 0.0780864953994751, 0.06507512927055359, -0.05587385594844818, 0.020513303577899933, 0.04093457758426666, 0.03779660165309906, 0.015257768332958221, -0.06941857933998108]","[0.05772759020328522, 0.038060687482357025, -0.03572982922196388, 0.04697293043136597, 0.061212629079818726, -0.07142501324415207, -0.004882887005805969, -0.016046192497015, -0.0065620094537734985, 0.02099628746509552, -0.05096918344497681, -0.018241871148347855, 0.07119959592819214, -0.06213509663939476, 0.06956540048122406, 0.02609800547361374, 0.0051835402846336365, -0.04020531475543976, -0.07185649126768112, -0.038383323699235916, -0.03020372986793518, -0.021459471434354782, 0.04123334586620331, -0.029543187469244003, -0.031443238258361816, -0.06510590761899948, 0.061908259987831116, -0.0020690932869911194, 1.5616416931152344e-05, 0.062162160873413086, 0.032734908163547516, -0.02071954309940338, 0.0046553462743759155, -0.029442019760608673, -0.0073441192507743835, 0.05940142273902893, -0.0621807835996151, 0.01714828610420227, 0.003360547125339508, -0.03584851697087288, 0.04131879657506943, 0.0016573742032051086, 0.0651368498802185, 0.040759049355983734, -0.07202175259590149, -0.03213394060730934, -0.05618973821401596, -0.05593467503786087, 0.04410388320684433, 0.06572729349136353, -0.012122489511966705, -0.015887480229139328, -0.028630301356315613, 0.010032564401626587, -0.002460002899169922, -0.0231754332780838, -0.01326598972082138, -0.052414730191230774, 0.040745869278907776, -0.0560363307595253, -0.006638877093791962, -0.020070727914571762, 0.02439090609550476, -0.0777495950460434, -0.005024954676628113, 0.05356296896934509, 0.030141979455947876, -0.0357871912419796, -0.06993290781974792, -0.07577555626630783, 0.0055318549275398254, 0.04366231709718704, 0.0008023306727409363, -0.04648870974779129, 0.023865744471549988, 0.06692537665367126, 0.02133975923061371, -0.015945587307214737, 0.033711984753608704, -0.019854485988616943, -0.05255478620529175, 0.0070929154753685, -0.0045343488454818726, 0.06622475385665894, 0.06084921956062317, 0.003046862781047821, 0.007897377014160156, 0.00842132419347763, -0.012279585003852844, 0.059924155473709106, -0.009497292339801788, 0.07261542975902557, 0.039111413061618805, -0.059520624577999115, 0.028702110052108765, 0.07632732391357422, -0.07274077832698822, 0.0071638524532318115, -0.039842311292886734, 0.05511432886123657, -0.062319520860910416, 0.004862405359745026, 0.0026674047112464905, -0.061633676290512085, -0.03713028505444527, -0.024128343909978867, 0.037218570709228516, -0.040492672473192215, -0.04946698620915413, 0.07167291641235352, 0.051258474588394165, 0.06803871691226959, -0.021677684038877487, -0.05159720405936241, 0.05402803421020508, -0.07760275900363922, -0.04285065457224846, -0.05614081025123596, 0.00787951797246933, -0.044169116765260696, 0.007415167987346649, 0.03499937802553177, -0.058189909905195236, -0.06977462023496628, -0.05932283401489258, -0.041239283978939056, 0.06498724222183228, 0.05902238190174103, -0.06654778122901917, -0.03531847894191742, 0.07643727958202362, 0.013180717825889587, 0.0316547155380249, 0.027280449867248535, 0.06721311807632446, 0.028543621301651, 0.00588969886302948, 0.01612764596939087, 0.011891283094882965, 0.027889780700206757, -0.045248981565237045, 0.06778453290462494, 0.06450168788433075, 0.02513798326253891, 0.06079120934009552, -0.0059530287981033325, -0.02529555931687355, 0.045880332589149475, -0.04422072693705559, 0.004019640386104584, -0.060222554951906204, 0.07264545559883118, -0.005332067608833313, -0.0031332671642303467, -0.01086311787366867, -0.010437116026878357, -0.034391243010759354, -0.06865400075912476, 0.024438977241516113, -0.004933007061481476, 0.04333806037902832, 0.053022369742393494, 0.026086144149303436, 0.03745454549789429, -0.07746540009975433, 0.019976019859313965, 0.05858428776264191, -0.015891820192337036, 0.01582254469394684, 0.04600568115711212, -0.04138375446200371, -0.047471314668655396, -0.06872683763504028, -0.017987705767154694, -0.030619196593761444, 0.057697027921676636, 0.05156168341636658, -0.05814763158559799, 0.045061223208904266, 0.04105590283870697, -0.07666555792093277, 0.01742706447839737, -0.06074588745832443, -0.05096713453531265, 0.05983905494213104, -0.02522941306233406, -0.04574984312057495, -0.038316451013088226, 0.006583325564861298, 0.07604964077472687, -0.03614948317408562, 0.059212952852249146, -0.06423044204711914, 0.05522520840167999, -0.06642988324165344, 0.005834907293319702, -0.05469059199094772, -0.06072954088449478, 0.0074396878480911255, -0.06933192163705826]","[0.028117820620536804, 0.005829527974128723, -0.050658609718084335, -0.07388550043106079, -0.04812716692686081, -0.022887498140335083, 0.07368381321430206, -0.062165312469005585, 0.04607795923948288, 0.002899281680583954, 0.028325609862804413, 0.003232233226299286, 0.062325894832611084, 0.041107773780822754, -0.03375100716948509, 0.0314055010676384, 0.03141710162162781, 0.03490500897169113, -0.06373856961727142, 0.05270648002624512, -0.059515878558158875, -0.07353067398071289, -0.0443095862865448, 0.05771723389625549, 0.052876874804496765, 0.057813987135887146, -0.005717262625694275, -0.005564339458942413, 0.05932994186878204, -0.050260309129953384, 0.013660766184329987, 0.05069108307361603, 0.06898990273475647, 0.00834791362285614, -0.012120403349399567, 0.023273438215255737, 0.038304850459098816, 0.004348739981651306, 0.0043383315205574036, -0.06415446847677231, 0.0496879518032074, 0.009125210344791412, -0.04146217182278633, 0.060534313321113586, -0.047971006482839584, 0.0321350023150444, -0.031214654445648193, 0.039339497685432434, 0.051082149147987366, -0.07384197413921356, -0.049259014427661896, -0.05608639121055603, -0.02873699739575386, -0.05447857826948166, -0.03656463325023651, 0.0061126574873924255, 0.07531985640525818, 0.012338303029537201, -0.04173925518989563, 0.01592663675546646, -0.022673938423395157, 0.040737271308898926, 0.011349201202392578, -0.006402306258678436, 0.05223928391933441, 0.009261801838874817, 0.00016774237155914307, -0.009472794830799103, 0.02119775116443634, -0.06459365040063858, -0.002319522202014923, -0.0012088045477867126, -0.07520420849323273, 0.03780302405357361, -0.038401514291763306, -0.007147729396820068, 0.031368620693683624, 0.0720948725938797, 0.007403284311294556, -0.015888933092355728, 0.008629612624645233, 0.03998706489801407, -0.021998330950737, -0.01280500739812851, -0.030345242470502853, -0.015280686318874359, -0.006346657872200012, -0.04123435169458389, 0.029083602130413055, 0.03694456070661545, 0.001101568341255188, 0.009841270744800568, 0.07681317627429962, -0.06147894635796547, -0.05482003837823868, -0.03747131675481796, 0.06688286364078522, 0.055969253182411194, -0.05106126517057419, 0.0008522868156433105, -0.04525255411863327, -0.07386574894189835, -0.05532145872712135, 0.022425152361392975, 0.023857705295085907, 0.02461976557970047, 0.05065961182117462, -0.006905034184455872, -0.0567597970366478, 0.02746059000492096, 0.03609679639339447, 0.0015992522239685059, 0.006416305899620056, -0.013027071952819824, 0.009846389293670654, -0.007021762430667877, -0.0546586811542511, -0.04022303596138954, -0.044466957449913025, 0.0687926858663559, -0.0421627052128315, 0.00801374763250351, 0.038556523621082306, 0.05914582312107086, 0.004645965993404388, 0.04862901568412781, 0.046956807374954224, -0.076972097158432, -0.021918557584285736, 0.0706317275762558, 0.002735413610935211, -0.06552988290786743, 0.04825259745121002, 0.05512385070323944, -0.011268436908721924, 0.025200888514518738, 0.05185948312282562, -0.019488226622343063, -0.04582604393362999, -0.07789652049541473, -0.0489584356546402, -0.043893709778785706, 0.04803188145160675, -0.04601480811834335, -0.01854667440056801, 0.03636622428894043, -0.04206865280866623, -0.059420183300971985, -0.04914369434118271, 0.06458459794521332, 0.06938274204730988, 0.04929168522357941, -0.015588037669658661, -0.051715366542339325, 0.004473231732845306, -0.07342420518398285, 0.0672500878572464, -0.04358077049255371, 0.02565498650074005, -0.05188387632369995, 0.011845521628856659, -0.020124197006225586, -0.011256784200668335, -0.0009467825293540955, 0.008041955530643463, 0.010164894163608551, 0.02078787237405777, -0.006425358355045319, 0.06705738604068756, -0.07325024157762527, -0.03398158401250839, 0.06854310631752014, 0.03577344864606857, 0.05482308566570282, -0.05709167197346687, -0.05416018143296242, -0.040161024779081345, -0.054273560643196106, -0.05800612270832062, -0.0026217177510261536, -0.06762608140707016, 0.0690717101097107, -0.02954838052392006, -0.016859382390975952, -0.05032377690076828, 0.012853726744651794, -0.021837331354618073, 0.07441233098506927, 0.04218176752328873, 0.03866735100746155, 0.06184414029121399, 0.04330447316169739, -0.026059020310640335, -0.02458556741476059, 0.05119657516479492, 0.0502781867980957, -0.07235950976610184, -0.06367509067058563, 0.025221779942512512, -0.03232525289058685]","[0.057962819933891296, 0.05151316523551941, 0.01652488112449646, 0.009464994072914124, 0.049729228019714355, 0.009733252227306366, 0.02449389547109604, 0.03310798108577728, 0.008243560791015625, 0.059854209423065186, -0.0097389817237854, 0.03802795708179474, 0.03478845953941345, -0.040667396038770676, -0.0673358216881752, 0.057042062282562256, 0.03386479616165161, 0.051044657826423645, -0.019914716482162476, -0.03087211400270462, -0.06497324258089066, -0.039451368153095245, -0.06175379455089569, 0.040585942566394806, -0.052781473845243454, -0.047100476920604706, 0.011901989579200745, 0.043948836624622345, -0.021450869739055634, -0.0488164946436882, 0.07432588934898376, -0.043729301542043686, 0.0011177510023117065, -0.06913197040557861, -0.04088076949119568, -0.05395098030567169, 0.017403528094291687, -0.03637838363647461, -0.03365181386470795, 0.012334577739238739, -0.06807924807071686, 0.01778293401002884, 0.011242054402828217, 0.0765548050403595, 0.0763753354549408, -0.041520871222019196, 0.03855589032173157, 0.05136820673942566, -0.026948560029268265, 0.018888652324676514, 0.07246872782707214, 0.07065652310848236, -0.040094614028930664, 0.016790330410003662, -0.05309189856052399, -0.06013938784599304, 0.01953762024641037, -0.0389394648373127, -0.03173891827464104, -0.07339715212583542, 0.0022399649024009705, -0.04589865356683731, 0.04807122051715851, 0.05922909080982208, 0.06863009929656982, -0.037065569311380386, -0.026883862912654877, -0.012817978858947754, -0.038237813860177994, -0.06934530287981033, 0.04342082887887955, -0.06321285665035248, 0.06599245965480804, 0.06546163558959961, -0.05556555092334747, -0.0281386561691761, 0.050085678696632385, -0.01806012913584709, -0.04903435707092285, -0.05522466450929642, -0.050226762890815735, -0.010552525520324707, -0.0074974000453948975, -0.008359737694263458, 0.027727380394935608, 0.04969818890094757, -0.051579780876636505, 0.04460206627845764, 0.0744626522064209, -0.018995780497789383, -0.026299837976694107, -0.052796870470047, 0.02768191695213318, -0.03448767960071564, -0.05077791213989258, -0.016642972826957703, -0.03293802589178085, -0.06284637749195099, 0.005206286907196045, -0.009978070855140686, -0.07088872045278549, 0.059180185198783875, -0.07295235991477966, -0.03716316074132919, 0.0694795548915863, 0.06330543756484985, -0.034723877906799316, -0.07777980715036392, 0.07376477122306824, -0.04931577667593956, 0.07367637753486633, -0.06244276836514473, 0.01682572066783905, 0.039890438318252563, 0.054637178778648376, 0.004852317273616791, -0.01590915024280548, -0.001852579414844513, -0.06964804232120514, 0.05525381863117218, 0.05083228647708893, -0.04009295627474785, -0.03954553231596947, 0.06579773128032684, -0.01503673940896988, 0.0613781213760376, 0.07010288536548615, 0.04169602692127228, 0.0007288902997970581, -0.01001109927892685, -0.059194616973400116, 0.05126309394836426, -0.05232847481966019, -0.07189352065324783, -0.055013470351696014, 0.03661032021045685, -0.037087053060531616, -0.07318884134292603, 0.03651806712150574, -0.027567308396100998, 0.04251209646463394, 0.055587708950042725, 0.021058134734630585, 0.04287335276603699, 0.029191486537456512, 0.00846099853515625, -0.0716923177242279, -0.030728761106729507, -0.043679945170879364, 0.058117061853408813, 0.06416872143745422, -0.0673137754201889, -0.017582833766937256, 0.02644415944814682, -0.04770490899682045, -0.05722292512655258, -0.0007174760103225708, -0.002746306359767914, 0.027438417077064514, 0.05574809014797211, -0.011389002203941345, -0.009439989924430847, 0.049168795347213745, -0.025176875293254852, -0.05369996279478073, -0.03517719358205795, -0.06539853662252426, -0.04693785309791565, 0.037890560925006866, 0.034036748111248016, 0.0756775289773941, -0.07790664583444595, -0.037863511592149734, -0.07476001232862473, -0.023231733590364456, -0.058342814445495605, -0.02089385688304901, -0.05818961188197136, 0.07195492088794708, 0.04182768613100052, -0.03861593082547188, 0.0037667229771614075, 0.03503184765577316, -0.04429556801915169, -0.014739550650119781, -0.07302845269441605, 0.07028067111968994, -0.007168151438236237, -0.018462393432855606, 0.029064498841762543, -0.024198085069656372, 0.007628932595252991, -0.02931758016347885, 0.013566941022872925, -0.043839238584041595, 0.06788188219070435, 0.015287071466445923, 0.02464263141155243, -0.029378831386566162, -0.03624091297388077]","[0.021350950002670288, 0.07448732852935791, -4.731118679046631e-06, 0.03832992911338806, -0.007179863750934601, -0.02530989795923233, -0.0728696659207344, 0.01602175086736679, 0.050250887870788574, -0.01615067571401596, -0.059588558971881866, 0.06922531127929688, -0.0034780800342559814, 0.07017435133457184, -0.05292300134897232, -0.06380946934223175, 0.05233432352542877, 0.054713860154151917, 0.00843249261379242, 0.053907960653305054, -0.00022733956575393677, -0.024827316403388977, -0.017620813101530075, 0.06817755103111267, 0.000981152057647705, -0.06634239852428436, 0.07115025818347931, 0.01722037047147751, 0.02625325322151184, 0.05994078516960144, -0.027662497013807297, 0.03864771127700806, -0.004453718662261963, 0.03322119265794754, 0.03984164446592331, -0.04371781647205353, -0.036010466516017914, -0.062101639807224274, 0.023856423795223236, -0.06887953728437424, 0.05342978239059448, 0.02287629246711731, 0.02005436271429062, 0.008649811148643494, 0.061077967286109924, 0.07614770531654358, -0.07543039321899414, -0.07404142618179321, 0.004900403320789337, -0.07083068788051605, 0.04551330953836441, 0.06497330963611603, -0.033010076731443405, -0.011632181704044342, -0.04303150251507759, -0.024893518537282944, -0.06562720984220505, -0.06645912677049637, -0.038364801555871964, 0.05890420079231262, -0.046970248222351074, 0.06146572530269623, -0.026250183582305908, 0.03394872695207596, 0.042434483766555786, 0.037501998245716095, -0.027431141585111618, -0.06245443969964981, 0.0448710098862648, 0.07746610045433044, 0.0196089968085289, 0.07381470501422882, 0.0669814944267273, 0.04092144966125488, -0.02275531366467476, 0.025562219321727753, 0.0519886314868927, -0.007890969514846802, 0.039155520498752594, 0.02912701666355133, 0.0016784295439720154, -0.015469834208488464, -0.0384250283241272, -0.050316181033849716, 0.04363612085580826, 0.007092565298080444, 0.016160599887371063, -0.05435562878847122, 0.010071024298667908, 0.05151413381099701, -0.04853112995624542, -0.027061156928539276, 0.0301743745803833, -0.022897087037563324, 0.07504013180732727, 0.026879601180553436, 0.02156703919172287, -0.03344927728176117, -0.030683256685733795, 0.054369956254959106, 0.008306413888931274, -0.007953353226184845, 0.045641809701919556, 0.02035045623779297, -0.0694519653916359, 0.024194084107875824, -0.0007896944880485535, 0.005472593009471893, 0.024882197380065918, 0.048538535833358765, -0.05354813486337662, 0.024793729186058044, 0.008421547710895538, -0.03417619317770004, -0.021551162004470825, 0.04153081774711609, -0.06192505359649658, 0.028291188180446625, -0.07674384117126465, 0.026751920580863953, 0.04299970716238022, 0.003791108727455139, -0.07230204343795776, -0.004667654633522034, 0.02910633385181427, 0.047593653202056885, 0.0762157291173935, -0.02836029604077339, 0.06903748214244843, -0.02957478165626526, 0.06646780669689178, 0.03674712032079697, -0.05972694233059883, -0.048415590077638626, 0.03127560764551163, -0.01645085960626602, 0.06634357571601868, -0.04669446870684624, -0.024429965764284134, 0.044522665441036224, 0.04642198979854584, -0.06971437484025955, 0.025393955409526825, -0.014192909002304077, 0.04354206472635269, 0.075478196144104, -0.005886457860469818, -0.053683146834373474, -0.026251450181007385, 0.049545660614967346, 0.01688166707754135, 0.0442521870136261, -0.023887325078248978, 0.07427258789539337, 0.07433934509754181, 0.022745393216609955, 0.028197839856147766, 0.01960238814353943, -0.018619466572999954, 0.020605549216270447, -0.0302143432199955, 0.0688585489988327, -0.03798967972397804, 0.07628388702869415, 0.03843696415424347, 0.07611438632011414, 0.03876356780529022, -0.031158894300460815, 0.0059611499309539795, 0.0068388432264328, 0.06344269216060638, -0.037572093307971954, 0.054502859711647034, -0.04546656087040901, -0.03544803708791733, 0.058929115533828735, 0.07077613472938538, -0.04891155660152435, -0.024369366466999054, -0.00477224588394165, 0.06114852428436279, -0.03405787795782089, -0.012369096279144287, 0.07473942637443542, 0.02639392763376236, -0.02443251758813858, -0.046570535749197006, -0.006823748350143433, 0.029283680021762848, -0.012739822268486023, -0.04255691170692444, 0.055924192070961, 0.02821587771177292, -0.06131407245993614, 0.017349429428577423, -0.03834906965494156, -0.04790981113910675, -0.07472451031208038, 0.030863285064697266, 0.05577138066291809]","[0.05042076110839844, 0.048262566328048706, 0.06526944041252136, 0.03798723965883255, -0.025067348033189774, 0.06377939879894257, -0.0315556675195694, 0.012316204607486725, -0.008168928325176239, -0.035797763615846634, 0.05209857225418091, -0.052753470838069916, -0.04015382006764412, -0.011178851127624512, 0.05198809504508972, 0.0496525764465332, 0.06624077260494232, 0.05813756585121155, -0.012299001216888428, -0.032106127589941025, 0.07424531877040863, 0.0555914044380188, 0.047240808606147766, -0.05436685308814049, 0.015667371451854706, -0.06097441911697388, -0.03194160759449005, 0.06588412821292877, -0.03865223377943039, 0.008491508662700653, 0.07414057850837708, -0.0592118576169014, 0.04821804165840149, 0.07024016976356506, -0.004577971994876862, -0.008726142346858978, -0.05978354066610336, -0.044600632041692734, 0.007175877690315247, 0.01772523671388626, 0.008540786802768707, 0.05158497393131256, 0.003722451627254486, 0.0739491730928421, 0.0568595826625824, -0.00844256579875946, 0.06208367645740509, 0.029738910496234894, -0.018758464604616165, 0.07688543200492859, -0.06558787077665329, -0.062259554862976074, 0.05663008987903595, 0.03373563289642334, -0.05976356193423271, -0.044795386493206024, -0.04328397288918495, -0.0581718310713768, -0.04223663732409477, -0.05678252875804901, 0.03767392784357071, -0.02998989075422287, 0.015038549900054932, -0.04906943440437317, 0.07225935161113739, -0.05953086167573929, -0.0380069762468338, 0.06852366030216217, -0.027984485030174255, 0.0007784441113471985, 0.06101834774017334, -0.03440354764461517, 0.0010322406888008118, -0.01625809818506241, 0.023432187736034393, 0.05272257328033447, 0.05373600125312805, -0.03286096826195717, 0.024694986641407013, -0.07189776003360748, 0.011694423854351044, -0.013194762170314789, -0.05527299642562866, 0.05297259986400604, 0.06582777202129364, -0.0603293813765049, -0.04562173783779144, -0.07156361639499664, -0.005896233022212982, 0.059325993061065674, 0.07275263965129852, -0.02967417985200882, -0.02665775641798973, -0.007590003311634064, 0.03301660716533661, -0.051737092435359955, -0.07121238112449646, -0.06828547269105911, 0.05326277017593384, -0.050802018493413925, 0.07238374650478363, -0.006973005831241608, -0.02205033227801323, -0.03846423700451851, -0.023286208510398865, -0.036612313240766525, 0.011492148041725159, 0.049398332834243774, 0.06843870878219604, -0.06138075888156891, 0.009869322180747986, -0.07483521103858948, -0.009394213557243347, -0.018367238342761993, -0.03645004332065582, -0.037658680230379105, -0.04324686899781227, 0.03324629366397858, -0.05829625204205513, 0.05026137828826904, -0.005598224699497223, 0.006186529994010925, 0.050450295209884644, 0.0680285394191742, -0.011143773794174194, 0.03191487491130829, 0.02996043860912323, -0.004394985735416412, -0.03164428845047951, -0.034920234233140945, -0.026699718087911606, 0.06758686900138855, 0.06909283995628357, -0.07002975046634674, -0.012301310896873474, -0.025905687361955643, 0.014698147773742676, 0.04024980962276459, -0.05059625953435898, 0.009116031229496002, -0.05850629508495331, 0.04903833568096161, 0.02607434242963791, -0.07560563832521439, -0.06190772354602814, 0.063118115067482, -0.038328927010297775, -0.05763062834739685, -0.06684701889753342, -0.0036417394876480103, 0.0022125840187072754, -0.035666123032569885, -0.020916122943162918, -0.02735663205385208, -0.006050087511539459, 0.03045232594013214, -0.06253289431333542, -0.020834319293498993, -0.007859602570533752, -0.052796367555856705, 0.0009277611970901489, 0.06856538355350494, 0.04422447085380554, 0.0150107741355896, 0.041594505310058594, -0.06357584148645401, -0.0029285848140716553, 0.0576310008764267, -0.03877769783139229, 0.037542641162872314, 0.06460575759410858, 0.03351333737373352, -0.003147527575492859, 0.01307976245880127, 0.06650632619857788, -0.028795458376407623, -0.030208274722099304, 0.06501349806785583, 0.04737035930156708, -0.05268038064241409, 0.07299409806728363, -0.01980150118470192, 0.055273741483688354, 0.009738445281982422, 0.06360109150409698, -0.0670945942401886, -0.03325533866882324, 0.00816144049167633, -0.03893711790442467, -0.01098640263080597, -0.06823880225419998, -0.030672907829284668, 0.07164663076400757, -0.05180136114358902, -0.07693268358707428, -0.030729670077562332, 0.007037825882434845, -0.07404222339391708, -0.03410101681947708, 0.04922592639923096]","[-0.012430161237716675, 0.028287597000598907, 0.07237507402896881, 0.007438957691192627, -0.05886216461658478, 0.008277393877506256, 0.01247156411409378, 0.0666673332452774, -0.052571676671504974, -0.045555684715509415, -0.0594736710190773, -0.06598641723394394, 0.06457069516181946, 0.014776602387428284, -0.049147214740514755, 0.0011140257120132446, 0.014201939105987549, -0.06775350123643875, -0.020269077271223068, 0.03803640604019165, 0.06697763502597809, 0.03688235580921173, -0.03428594022989273, -0.0056314170360565186, -0.06389480829238892, -0.034603722393512726, -0.006957605481147766, 0.01277770847082138, -0.06200958043336868, 0.05300892889499664, 0.023432858288288116, -0.07611420750617981, -0.07083113491535187, 0.057285964488983154, -0.06598109006881714, 0.05631764233112335, -0.014195851981639862, 0.03980472683906555, 0.018421083688735962, 0.05096927285194397, 0.07400768995285034, 0.06508660316467285, 0.023191429674625397, -0.009129360318183899, 0.07471174001693726, -0.025661837309598923, 0.04010727256536484, -0.031301986426115036, 0.00043836236000061035, -0.07384046912193298, 0.05131511390209198, 0.04262404143810272, 0.026253923773765564, 0.07563744485378265, -0.03488637134432793, -0.031817130744457245, -0.07622683793306351, 0.029761627316474915, -0.07031895220279694, -0.005183704197406769, 0.006471507251262665, 0.06872975826263428, 0.050893187522888184, 0.00869511067867279, -0.07012803852558136, -0.02937963232398033, -0.04037797078490257, 0.07685372233390808, 0.07083438336849213, -0.028465893119573593, 0.0069233328104019165, -0.014782339334487915, -0.01569266989827156, 0.05406159162521362, -0.03446276858448982, -0.04531998932361603, 0.06187106668949127, -0.07207885384559631, 0.025265440344810486, 0.07406662404537201, -0.05433676764369011, -0.05544055253267288, -0.00533672422170639, -0.05899261683225632, -0.01639701798558235, -0.046466387808322906, -0.021865367889404297, -0.07586149126291275, -0.07498674094676971, -0.06423576921224594, 0.0033352822065353394, 0.008414246141910553, 0.05770610272884369, -0.05845624953508377, -0.006096221506595612, 0.005797892808914185, -0.025204017758369446, -0.013792075216770172, -0.034893352538347244, 0.023630812764167786, -0.04879868030548096, -0.035344768315553665, 0.029409758746623993, -0.044102802872657776, 0.03956916183233261, 0.04500861465930939, 0.020030125975608826, 0.03237256407737732, -0.018941454589366913, 0.05792286992073059, 0.010299257934093475, -0.04043209180235863, 0.054701000452041626, -0.0628977045416832, -0.038853973150253296, -0.07081730663776398, 0.05762605369091034, 0.01743968576192856, -0.0333469919860363, -0.05540918558835983, -0.024589981883764267, 0.04970310628414154, -0.06358429044485092, 0.021063312888145447, -0.023657195270061493, -0.0765390545129776, 0.0639466792345047, -0.06262415647506714, 0.06488141417503357, -0.07271186262369156, 0.04393979161977768, 0.053452447056770325, -0.03166266158223152, -0.05355727672576904, 0.06960685551166534, -0.011152803897857666, 0.023868687450885773, -0.06225307658314705, 0.027769625186920166, 0.06906816363334656, -0.007118701934814453, 0.011996842920780182, 0.0031158551573753357, -0.05211733654141426, 0.06886768341064453, -0.026846926659345627, 0.040495164692401886, -0.03134438022971153, 0.04071617126464844, 0.0747232586145401, -0.02522554248571396, -0.03502596169710159, -0.047586821019649506, 0.07390689849853516, -0.054321035742759705, 0.055546835064888, -0.07691652327775955, -0.01510234922170639, 0.024115927517414093, 0.035492271184921265, 0.009348265826702118, -0.06330493837594986, 0.042149804532527924, -0.006955914199352264, -0.05766570195555687, -0.06549065560102463, 0.058076098561286926, 0.005543805658817291, -0.043197572231292725, 0.02982097864151001, -0.032542500644922256, 0.0436219722032547, -0.03264297917485237, 0.072641521692276, 0.04686596989631653, -0.013922303915023804, 0.07690300047397614, 0.05835983157157898, 0.056459054350852966, -0.029106181114912033, 0.028053000569343567, -0.008018165826797485, -0.035050537437200546, -0.046000730246305466, -0.025638308376073837, 0.04823191463947296, 0.051736652851104736, -0.03943334519863129, 0.006647124886512756, 0.040668219327926636, -0.022582732141017914, 0.023749276995658875, 0.019229672849178314, 0.07625740766525269, 0.04975505173206329, -0.05909121409058571, -0.014749869704246521, 0.03778505325317383, 0.07798570394515991, -0.03262527287006378]","[0.01411302387714386, 0.05249109864234924, 0.0012692958116531372, 0.03411469608545303, 0.015371426939964294, -0.05503856763243675, -0.06441950798034668, -0.018440797924995422, -0.042487431317567825, 0.010266616940498352, -0.036959562450647354, -0.043033141642808914, -0.004068300127983093, 0.07773391902446747, 0.02290995419025421, 0.013158619403839111, 0.0004475787281990051, -0.03938847780227661, 0.02352011948823929, -0.04611355438828468, -0.059356383979320526, 0.0505085289478302, -0.004534870386123657, 0.008947804570198059, 0.0209587961435318, 0.07697086036205292, 0.07135272026062012, -0.0007941797375679016, 0.04997064173221588, -0.07209023088216782, 1.1861324310302734e-05, -0.0432131364941597, -0.027269188314676285, -0.05713372677564621, 0.0010762140154838562, 0.05707895755767822, 0.015325009822845459, 0.03892175853252411, 0.07398179173469543, 0.014953278005123138, 0.029476888477802277, -0.042277686297893524, -0.03137519210577011, 0.025164082646369934, 0.06694856286048889, 0.0685887336730957, 0.026507101953029633, 0.02478814125061035, 0.02326217293739319, 0.012527436017990112, -0.05714646354317665, -0.040792711079120636, -0.028695743530988693, 0.024353668093681335, -0.014109112322330475, 0.0257183238863945, -0.0629175677895546, -0.015138544142246246, 0.008340172469615936, 0.04170682281255722, 0.05869115889072418, 0.001487918198108673, -0.009086258709430695, 0.026400089263916016, -0.028646424412727356, -0.01310873031616211, -0.025152523070573807, 0.018579214811325073, -0.012180447578430176, 0.0016017258167266846, -0.06054225191473961, -0.06261719763278961, -0.01594703644514084, 0.02156519889831543, -0.04632575437426567, -0.03810199722647667, 0.03141655772924423, 0.003226853907108307, 0.07744087278842926, 0.03454987704753876, -0.050355613231658936, -0.06236077845096588, 0.04566366225481033, -0.048813462257385254, -0.06373459100723267, 0.0455002561211586, 0.045850157737731934, 0.013675905764102936, 0.005510605871677399, -0.014634065330028534, -0.04852926731109619, -0.053200773894786835, -0.07350662350654602, -0.02152915671467781, -0.05529344081878662, -0.06500142812728882, 0.05306345224380493, -0.07141169905662537, 0.004106335341930389, -0.07673116773366928, 0.0047531649470329285, 0.01928461343050003, -0.06526156514883041, -0.013149626553058624, -0.019650030881166458, 0.0640489012002945, -0.06321808695793152, -0.016288481652736664, -0.040797531604766846, 0.02458503097295761, 0.05942505598068237, 0.0673193484544754, -0.012402959167957306, 0.0021633580327033997, 0.024366721510887146, -0.0713377371430397, 0.014602117240428925, 0.0749933123588562, 0.03878646343946457, -0.017638295888900757, -0.0029419735074043274, 0.04345931112766266, -0.06662578880786896, 0.05766640603542328, 0.058311209082603455, -0.0748947337269783, 0.06438934803009033, -0.031093213707208633, -0.017708465456962585, -0.021138209849596024, -0.06545377522706985, 0.0756414383649826, -0.07125123590230942, 0.03719373047351837, 0.04167822748422623, 0.035521574318408966, 0.05185702443122864, 0.018281839787960052, 0.012737147510051727, 0.02478226274251938, 0.024811357259750366, 0.031346872448921204, -0.06752143800258636, -0.006888814270496368, 0.057742029428482056, -0.02905045822262764, -0.03791314363479614, -0.02644326537847519, -0.06440414488315582, 0.07418344914913177, 0.015188023447990417, 0.0525246262550354, -0.020819444209337234, 0.004501774907112122, 0.07176727056503296, 0.03756546229124069, 0.04847516119480133, 0.04592017084360123, -0.05931944400072098, 0.014572501182556152, 0.006628021597862244, -0.019337520003318787, -0.051061805337667465, -0.0560341477394104, 0.023067228496074677, 0.06237174570560455, 0.046183086931705475, 0.04556573927402496, 0.053953349590301514, 0.07067883014678955, -0.03099549189209938, 0.004782728850841522, 0.029901064932346344, -0.07220427691936493, 0.027549847960472107, 0.03782355785369873, 0.019725807011127472, 0.02498050034046173, 0.07453347742557526, -0.05607803165912628, 0.0743483155965805, -0.010017089545726776, -0.02082527056336403, 0.04200019687414169, -0.03283579647541046, 0.033846236765384674, -0.03068578988313675, -0.0374341756105423, 0.07095654308795929, 0.013271242380142212, -0.023527655750513077, -0.06960184872150421, -0.05626697838306427, -0.05535119026899338, -0.041348885744810104, 0.05134308338165283, -0.007294602692127228, -0.03441929817199707, 0.0207042396068573, 0.03770844638347626]","[0.013975553214550018, 0.025983154773712158, 0.03991071134805679, -0.06035955995321274, 0.03472283482551575, -0.019506584852933884, 0.07200941443443298, -0.07646719366312027, -0.06998350471258163, -0.03393182158470154, -0.025001797825098038, -0.06654078513383865, 0.06587013602256775, -0.008027791976928711, 0.047818273305892944, -0.06717047840356827, -0.03988753259181976, 0.03335252404212952, -0.022743307054042816, 0.003959432244300842, 0.014064952731132507, 0.025839298963546753, -0.023891158401966095, -0.05844561755657196, -0.07101468741893768, -0.04763652756810188, -0.018089432269334793, -0.055904701352119446, 0.016192786395549774, 0.06776975095272064, 0.03057270497083664, 0.07225504517555237, 0.005085311830043793, -0.020461414009332657, -0.018120914697647095, 0.05784420669078827, -0.03546006605029106, -0.0034450888633728027, 0.07244619727134705, -0.021177101880311966, -0.030559789389371872, -0.019989557564258575, 0.06356222927570343, -0.019528869539499283, 0.04291471838951111, -0.013898678123950958, -0.07020218670368195, -0.008119836449623108, 0.002612389624118805, -0.004506461322307587, 0.034697890281677246, -0.07280456274747849, -0.04922596365213394, 0.01823613792657852, 0.008076898753643036, 0.035811133682727814, -0.029096480458974838, 0.04621821641921997, -0.012562960386276245, -0.044861238449811935, -0.027646485716104507, 0.034532323479652405, -0.030808348208665848, -0.07112309336662292, -0.054060857743024826, -0.008993469178676605, -0.060701802372932434, -0.02517549693584442, 0.025969401001930237, -0.0763898715376854, 0.057425692677497864, 0.050330474972724915, -0.047602906823158264, -0.06989401578903198, 0.013838045299053192, 0.023300282657146454, 0.053129568696022034, -0.06817935407161713, 0.03469010442495346, -0.040145330131053925, -0.023970376700162888, -0.019808128476142883, 0.03129594027996063, 0.03079783171415329, 0.0045781806111335754, 0.048493891954422, -0.06894882768392563, -0.06527450680732727, 0.0047886669635772705, 0.02438914030790329, -0.03942865505814552, -0.0025972723960876465, 0.04638923704624176, -0.036390598863363266, -0.06407041102647781, 0.07502917945384979, 0.06785799562931061, -0.026341985911130905, -0.005506567656993866, -0.03669508546590805, -0.034408070147037506, 0.07461896538734436, 0.0721231997013092, -0.0451943576335907, 0.015229783952236176, -0.05927351489663124, 0.026097819209098816, -0.012834161520004272, 0.07382890582084656, 0.06104390323162079, -0.07640191912651062, 0.0003740042448043823, 0.05557332932949066, -0.017336785793304443, -0.04979214072227478, -0.03117663785815239, 0.057000041007995605, -0.0011393427848815918, 0.032989151775836945, 0.03396400809288025, 0.032022833824157715, -0.06577935069799423, 0.03913097828626633, 0.04665360599756241, -0.049290627241134644, 0.04454170912504196, -0.008949533104896545, 0.021135658025741577, 0.013754114508628845, -0.06085604801774025, -0.01132088154554367, -0.06000810116529465, -0.027970876544713974, 0.05860915780067444, 0.06550675630569458, 0.019966840744018555, -0.052312299609184265, 0.07087269425392151, -0.004720769822597504, 0.04620826244354248, 0.0728851705789566, -0.006965070962905884, -0.02204606682062149, -0.07771743834018707, -0.06635744124650955, 0.07567255198955536, -0.00783471018075943, 0.07165682315826416, -0.04874210059642792, 0.06568805873394012, 0.030857868492603302, 0.06773301959037781, -0.04762062802910805, -0.03007439523935318, 0.06903234124183655, 0.030396290123462677, -0.05055468529462814, 0.035907067358493805, -0.0012046396732330322, 0.027253732085227966, -0.039049193263053894, 0.06703302264213562, -0.03555804863572121, -0.03281552344560623, -0.023998357355594635, 0.04607275873422623, -0.06459357589483261, 0.01738833636045456, -0.048665061593055725, 0.008608110249042511, 0.007340028882026672, -0.03481476753950119, -0.06034678965806961, 0.0766579657793045, -0.03527310863137245, -0.011258386075496674, -0.05812547355890274, 0.07514418661594391, 0.019220158457756042, 0.01428435742855072, 0.05932484567165375, -0.07164181023836136, 0.018629036843776703, -0.018541496247053146, 0.06558120250701904, -0.0334155410528183, -0.005498044192790985, 0.010202184319496155, 0.022556424140930176, -0.019096743315458298, 0.0614016056060791, -0.054700642824172974, -0.009642787277698517, -0.06459573656320572, 0.061029091477394104, 0.0674232542514801, 0.04371718317270279, -0.02780963107943535, 0.06745016574859619, -0.0689680278301239]","[0.04413601756095886, 0.004283033311367035, -0.04024051874876022, 0.07478509843349457, -0.019860614091157913, 0.04960305988788605, 0.0013657733798027039, -0.050521381199359894, -0.04772224277257919, -0.0013094544410705566, -0.07029618322849274, 0.029224179685115814, -0.05440308153629303, -0.012377940118312836, -0.06074706092476845, -0.022051632404327393, 0.0035549700260162354, 0.004736371338367462, -0.05994834005832672, -0.005685962736606598, 0.0006131976842880249, 0.0176025852560997, -0.0017301663756370544, -0.07531367987394333, -0.008988983929157257, 0.005579620599746704, 0.07267493009567261, -0.030180178582668304, 0.04970744252204895, -0.029910750687122345, 0.060293376445770264, -0.04075875133275986, 0.05588380992412567, 0.060817137360572815, -0.04865891858935356, -0.03553103283047676, -0.04009001702070236, -0.013774581253528595, 0.05699776113033295, -0.02368180826306343, 0.0453018918633461, 0.07790102064609528, -0.012928470969200134, 0.05638857185840607, -0.02283289283514023, -0.02172350138425827, -0.057032935321331024, 0.06323577463626862, 0.02270718663930893, -0.07151105999946594, 0.03648553043603897, 0.005667798221111298, 0.019161701202392578, -0.07143823057413101, -0.006130695343017578, 0.049796804785728455, -0.007671266794204712, 0.06905080378055573, 0.06864407658576965, 0.023841693997383118, 0.05453743040561676, 0.003724493086338043, 0.042107582092285156, -0.060096606612205505, 0.024200357496738434, 0.06209321320056915, 0.06754222512245178, 0.0006633922457695007, 0.03806852549314499, -0.008821338415145874, -0.02525428682565689, -0.018738582730293274, -0.03948506340384483, -0.07187415659427643, -0.000517822802066803, 0.009848810732364655, 0.025961503386497498, -0.07679171115159988, -0.030337870121002197, 0.034818135201931, 0.04130911827087402, -0.026923686265945435, 0.017261721193790436, -0.020634833723306656, 0.07380349934101105, 0.06671388447284698, 0.021891914308071136, 0.06036287546157837, -0.010839179158210754, 0.06247498095035553, 0.061242491006851196, 0.04055114835500717, -0.026255305856466293, -0.05517691373825073, -0.05478641390800476, -0.0745924785733223, 0.02346474677324295, -0.0012556090950965881, -0.03277207165956497, -0.07064662128686905, -0.034574419260025024, 0.002796664834022522, -0.01030990481376648, -0.03264269977807999, 0.059821367263793945, 0.0632939487695694, -0.010385289788246155, 0.017036356031894684, 0.06724607944488525, 0.04349029064178467, -0.06314238905906677, 0.0662350058555603, -0.02337179332971573, -0.058465149253606796, -0.02958427369594574, -0.07437580823898315, 0.06619110703468323, 0.03153470158576965, 0.005439862608909607, -0.062761589884758, 0.03406417369842529, 0.02312486618757248, -0.07430578768253326, -0.010924726724624634, -0.06985627859830856, -0.07277095317840576, -0.061412371695041656, -0.026317209005355835, 0.042634882032871246, -0.057070355862379074, 0.04403065890073776, 0.04849030077457428, 0.0027350932359695435, 0.009846962988376617, -0.0230448879301548, -0.021967224776744843, -0.06280969828367233, 0.028673678636550903, 0.01841197907924652, 0.01635885238647461, -0.0119071826338768, -0.06619081646203995, -0.04648243635892868, 0.008087590336799622, 0.004946857690811157, 0.05901893973350525, 0.053328096866607666, 0.03719724714756012, -0.00031656771898269653, 0.005298055708408356, -0.06640715152025223, -0.01636403053998947, 0.07787597179412842, -0.01331232488155365, -0.03197392448782921, 0.06772375106811523, -0.0022872015833854675, -0.04484064504504204, 0.05699503421783447, 0.06671762466430664, -0.021433796733617783, 0.05242854356765747, 0.03682825714349747, -0.008994102478027344, -0.06951706856489182, 0.06187404692173004, 0.06757885217666626, -0.027245264500379562, -0.02252041921019554, -0.06356543302536011, -0.018564321100711823, -0.07691872119903564, -0.04340628907084465, 0.07223489880561829, -0.0020085349678993225, 0.06301625072956085, -0.058933209627866745, 0.00039552897214889526, -0.05518542230129242, -0.0017078295350074768, 0.020291753113269806, -0.03405579552054405, -0.003926962614059448, 0.0666830986738205, -0.07507584244012833, 0.0771433413028717, 0.017324313521385193, -0.03873740881681442, -0.01295492798089981, -0.007481813430786133, 0.06533364951610565, 0.07596983015537262, -0.07202938944101334, -0.06158936768770218, -0.07532831281423569, 0.06897926330566406, 0.010593555867671967, 0.050453588366508484, -0.0035531222820281982, 0.06122657656669617]","[0.07538904249668121, -0.02973777987062931, 0.07575550675392151, -0.0014177910052239895, 0.019562415778636932, 0.026106201112270355, 0.049321990460157394, -0.058755893260240555, 0.014869791455566883, -0.06273890286684036, -0.01977752149105072, 0.04210730269551277, 0.01842910796403885, -0.033703893423080444, -0.06842868030071259, 0.01690547913312912, -0.036080263555049896, -0.04332221299409866, 0.07028703391551971, -0.07212282717227936, -0.1376286894083023, 0.024925686419010162, -0.05540981888771057, -0.0589640736579895, -0.08574360609054565, 0.02057831361889839, 0.06897761672735214, -0.06799699366092682, 0.07028074562549591, 0.02749052830040455, 0.0011694376589730382, 0.040903881192207336, -0.0012919858563691378, -0.03751348704099655, 0.00787202175706625, 0.07765522599220276, -0.02757948264479637, 0.03767695277929306, 0.04522572085261345, -0.06993799656629562, 0.05678560212254524, 0.05254708230495453, 0.020917322486639023, -0.018481677398085594, 0.06878481060266495, 0.039425987750291824, -0.007879826240241528, -0.050105612725019455, -0.057135339826345444, -0.06556901335716248, -0.04442960396409035, 0.020608196035027504, 0.033413469791412354, -0.06102091073989868, -0.0011720869224518538, -0.0667106881737709, 0.00758372200652957, 0.07509098201990128, 0.07483246922492981, 0.059049785137176514, 0.003974288702011108, 0.13198702037334442, 0.07252287864685059, 0.04665407910943031, -0.0750890001654625, 0.03492817282676697, 0.015949629247188568, 0.05290984734892845, -0.010449075140058994, 0.07259691506624222, -0.048873260617256165, 0.010856984183192253, -0.050563231110572815, -0.04737800732254982, 0.026150712743401527, 0.06066377833485603, 0.05173913389444351, 0.02999303862452507, 0.04649239778518677, -0.03467922657728195, 0.10906670242547989, 0.01156819611787796, -0.04429750144481659, -0.01040997076779604, -0.07088736444711685, 0.0963665172457695, -0.049643374979496, 0.013245679438114166, -0.03247162327170372, -0.03747829049825668, 0.09427006542682648, -0.021326450631022453, 0.00584527850151062, -0.01052236557006836, 0.039952341467142105, 0.047033146023750305, 0.022284366190433502, -0.10946332663297653, 0.038231261074543, -0.007549355272203684, 0.03946265950798988, -0.04443742707371712, 0.083838552236557, -0.10619843006134033, 0.05374698340892792, -0.04150098189711571, -0.027508627623319626, 0.015657499432563782, 0.07136216759681702, 0.013183685019612312, 0.07504166662693024, 0.05774574726819992, -0.019670264795422554, 0.07978465408086777, -0.00793764553964138, 0.02729036472737789, 0.03225317969918251, -0.09476715326309204, 0.07282879203557968, 0.00822114385664463, 0.06444569677114487, 0.03720928728580475, 0.13844096660614014, -0.04889697954058647, 0.02101069688796997, 0.029072746634483337, -0.03721460700035095, -0.03604068234562874, 0.047681331634521484, -0.03599049523472786, 1.1921590612473665e-06, 0.021728770807385445, -0.003802560269832611, 0.047849349677562714, 0.021996429190039635, -0.024298401549458504, 0.03823735564947128, -0.0010718737030401826, -0.0266772098839283, -0.00807383842766285, -0.07616596668958664, 0.06846544146537781, -0.059441499412059784, 0.12713372707366943, 0.06831710040569305, -0.03817882388830185, -0.02000146172940731, 0.07069461047649384, 0.025258222594857216, -0.045548733323812485, -0.018213756382465363, 0.005848320201039314, 0.0037389472126960754, -0.002039216458797455, -0.0393306240439415, 0.07257284224033356, -0.03822564706206322, 0.07519209384918213, -0.005086271092295647, -0.03032461553812027, 0.08393176645040512, 0.037547964602708817, 0.008065607398748398, -0.031237909570336342, 0.06428447365760803, 0.04364897683262825, 0.0588894784450531, 0.05045497789978981, 0.06758660823106766, -0.04198112711310387, -0.04680513218045235, 0.06943295150995255, -0.009662128984928131, -0.009635056369006634, 0.0009241970838047564, 0.03715956583619118, -0.08475198596715927, 0.01973303034901619, -0.06355651468038559, 0.0004629790782928467, 0.04443247243762016, 0.04961057007312775, -0.09832936525344849, -0.03256506845355034, 0.005995865911245346, -0.010362810455262661, 0.017189063131809235, -0.020281517878174782, 0.11559146642684937, -0.0385645292699337, 0.09359020739793777, 0.048127152025699615, -0.07446326315402985, 0.05084415525197983, -0.06284642964601517, -0.006959952414035797, -0.10289577394723892, 0.05108742415904999, 0.06133575737476349, -0.05771481618285179]","[0.04933612048625946, 0.05288068950176239, 0.026263587176799774, -0.08864346146583557, -0.03987911716103554, -0.05186877399682999, 0.040124449878931046, -0.03488646447658539, -0.07549412548542023, -0.06029186770319939, -0.014582701027393341, -0.011732801795005798, -0.019159629940986633, -0.0508451983332634, 0.0740688145160675, 0.04128212481737137, -0.02828657254576683, -0.035030804574489594, 0.05555945634841919, 0.06677757203578949, -0.030914440751075745, -0.0014995773090049624, 0.029609352350234985, -0.07770201563835144, -0.012583676725625992, -0.036278605461120605, -0.007961385883390903, 0.032980017364025116, 0.04248802363872528, 0.10432615876197815, -0.1403307169675827, -0.06418682634830475, 0.0018302572425454855, -0.04235270246863365, 0.024828141555190086, 0.056375451385974884, -0.06761442869901657, 0.0009622583747841418, 0.0041413274593651295, 0.07257557660341263, 0.1381860226392746, 0.008086152374744415, -0.020144779235124588, -0.031284790486097336, -0.011359426192939281, 0.06803347170352936, 0.0703437402844429, -0.06905924528837204, -0.07130517065525055, -0.07796132564544678, -0.06842152774333954, 0.04078128561377525, 0.09085074812173843, -0.09555049240589142, 0.03488096222281456, 0.030881009995937347, -0.021101469174027443, 0.05459566041827202, -0.06504248082637787, 0.053485020995140076, -0.05996771901845932, 0.0493975393474102, 0.035548679530620575, 0.036140572279691696, 0.019186697900295258, 0.017938898876309395, -0.036342769861221313, -0.04304566979408264, -0.004488545469939709, 0.1221449226140976, -0.045157041400671005, 0.008851923048496246, -0.03137051686644554, -0.055079907178878784, 0.05375957116484642, 0.034564677625894547, 0.08854958415031433, -0.05876680463552475, 0.018577873706817627, 0.08210311084985733, 0.01627850905060768, -0.06654037535190582, 0.0785728469491005, -0.017526524141430855, -0.11370570212602615, 0.026850607246160507, 0.09975709766149521, -0.047311507165431976, 0.05253860354423523, -0.040403030812740326, 0.06731469929218292, -0.012783913873136044, 0.010013364255428314, 0.03844009339809418, 0.05656212195754051, 0.0046667978167533875, 0.030367400497198105, -0.10147267580032349, -0.008119436912238598, 0.11148069053888321, 0.0048981113359332085, -0.04630466550588608, 0.07148534059524536, 0.0013467982644215226, 0.04187106341123581, -0.006245473865419626, 0.13194912672042847, 0.039108455181121826, 0.030975624918937683, -0.061310775578022, -0.019756710156798363, 0.08954509347677231, 0.014404156245291233, -0.060185518115758896, -0.034749917685985565, -0.05806376039981842, 0.08963014930486679, -0.10357458889484406, -0.02868729643523693, -0.039702195674180984, 0.11195627599954605, 0.031012775376439095, 0.12705104053020477, 0.0054670050740242004, -0.09211766719818115, -0.01160682737827301, 0.053079791367053986, -0.02371247112751007, 0.14041906595230103, -0.04867354407906532, -0.03278716281056404, -0.0339975580573082, -0.025678500533103943, 0.0029154042713344097, -0.04514748230576515, 0.12119536846876144, -0.07950768619775772, 0.04595155641436577, -0.025315389037132263, -0.06362633407115936, -0.035200078040361404, -0.006201483309268951, 0.015873977914452553, 0.07529763877391815, -0.060162030160427094, -0.05702141672372818, 0.03825334459543228, -0.057049334049224854, 0.008325057104229927, -0.046696338802576065, 0.019287660717964172, -0.005302182864397764, 0.022946052253246307, 0.023277290165424347, -0.0869365781545639, 0.011069867759943008, 0.0005232460098341107, 0.03957308828830719, 0.10333617031574249, 0.04687973111867905, -0.013114707544445992, 0.06136251240968704, -0.003862599143758416, -0.039502061903476715, 0.028776690363883972, 0.10009454190731049, 0.03568235784769058, 0.06692630052566528, 0.08912856131792068, 0.06688220053911209, 0.000365331768989563, 0.03539097309112549, -0.04553648829460144, 0.006597297266125679, -0.04642453044652939, 0.08328687399625778, -0.015780720859766006, 0.08249630033969879, -0.0623745359480381, -0.07498697936534882, -0.006309990305453539, 0.056200310587882996, -0.04392294958233833, -0.03836510702967644, 0.09974745661020279, 0.0769902914762497, 0.09997395426034927, -0.018300361931324005, 0.1403370350599289, -0.034190379083156586, -0.0013756343396380544, -0.05892578139901161, -0.09021028131246567, 0.02605847455561161, 0.039046548306941986, -0.07411239296197891, -0.023089250549674034, 0.05368544161319733, 0.05893605947494507, -0.024734344333410263]","[-0.07666991651058197, -0.011276613920927048, 0.06487259268760681, -0.00997822917997837, 0.03978230804204941, 0.07730691134929657, 0.028383463621139526, -0.019875824451446533, 0.09418871998786926, 0.008552358485758305, 0.0010083317756652832, 0.09568368643522263, -0.05317770689725876, 0.06778621673583984, -0.0307750403881073, -0.005318216979503632, 0.02151649445295334, -0.04851370304822922, -0.05643188953399658, -0.021732699126005173, 0.056920126080513, -0.10768529772758484, -0.05568574368953705, -0.11750423908233643, 0.025882065296173096, 0.0100188497453928, -0.11304180324077606, 0.03934391215443611, 0.031017161905765533, -0.02853141538798809, 0.010977165773510933, 0.047995757311582565, 0.07011456787586212, -0.07356590777635574, 0.12362533807754517, -0.028292585164308548, 0.06965579092502594, 0.03479572758078575, 0.07678686082363129, -0.06236625090241432, 0.0030398815870285034, -0.01578262820839882, 0.10182640701532364, 0.07502984255552292, -0.030463986098766327, 0.08816392719745636, 0.06059471517801285, 0.002820894354954362, 0.07742777466773987, -0.005597010254859924, -0.0652492418885231, 0.0227047149091959, 0.15004174411296844, -0.022013936191797256, -0.011215069331228733, -0.0733080506324768, 0.03500960022211075, -0.07029528170824051, -0.03208684176206589, -0.06329700350761414, 0.015170842409133911, -0.06657987833023071, 0.023004859685897827, 0.055990803986787796, 0.07480166852474213, -0.02673826925456524, 0.054101333022117615, -0.09168555587530136, -0.041907116770744324, -0.003995432518422604, -0.09631411731243134, 0.1292511224746704, -0.06828497350215912, 0.08340763300657272, 0.02282373607158661, 0.10185933858156204, 0.03880009055137634, 0.04968159645795822, -0.07269939035177231, 0.10991143435239792, -0.009861892089247704, 0.04914894700050354, 0.05149613320827484, 0.006058536469936371, 0.03434198722243309, -0.001712799072265625, -0.012757726944983006, 0.012799270451068878, 0.06869803369045258, -0.05616883933544159, -0.07913419604301453, 0.023325353860855103, 0.028353944420814514, -0.0613289475440979, 0.057064831256866455, -0.0161764957010746, 0.08801445364952087, 0.06917865574359894, -0.026821156963706017, -0.03757753595709801, 0.023397915065288544, -0.03478239104151726, -0.06481896340847015, -0.028598356992006302, 0.06367380917072296, 0.08657848834991455, 0.02127939462661743, 0.007477663457393646, -0.0656115934252739, -0.044644974172115326, -0.009643366560339928, 0.0031127622351050377, 0.15768778324127197, -0.16296415030956268, 0.12391392886638641, -0.04971690475940704, -0.003146700095385313, 0.0048509761691093445, -0.03309163823723793, -0.007867558859288692, 0.047847598791122437, 0.025126537308096886, 0.05291160196065903, -0.018781159073114395, -0.06974546611309052, -0.0593596026301384, -0.02964295819401741, 0.0010124891996383667, 0.11862015724182129, 0.021398339420557022, 0.021240735426545143, 0.06685340404510498, 0.07621768116950989, 0.045553058385849, -0.055047307163476944, 0.1591893881559372, 0.04863413795828819, 0.027459904551506042, -0.013355150818824768, 0.018381992354989052, -0.049922555685043335, -0.023146651685237885, 0.05398327112197876, 0.014451942406594753, -0.06332303583621979, -0.003752559656277299, 0.0014812499284744263, -0.028634604066610336, -0.027631551027297974, 0.012355170212686062, 0.02210947871208191, 0.057034045457839966, -0.04730132222175598, 0.06907948851585388, -0.07689245790243149, -0.04887313023209572, 0.07720538973808289, 0.0038734525442123413, 0.10236164182424545, 0.03615047037601471, 0.043744977563619614, 0.031178966164588928, -0.10435276478528976, -0.10191036760807037, 0.004151299595832825, 0.03835673630237579, -0.04071572795510292, 0.17030127346515656, -0.05032716691493988, 0.051415763795375824, -0.012177042663097382, 0.06612488627433777, -0.0392955020070076, 0.05858022719621658, 0.14222906529903412, -0.05232621729373932, 0.003786815330386162, -0.047464363276958466, -0.0760771781206131, -0.011157296597957611, 0.008464808575809002, -0.01631573587656021, 0.04546326398849487, -0.003065897384658456, -0.038718294352293015, -0.009680887684226036, 0.004699531942605972, 0.05724987015128136, 0.09994131326675415, -0.06546103209257126, 0.01164592057466507, -0.04775184392929077, -0.048911307007074356, 0.00018890821957029402, 0.011744469404220581, -0.03327690064907074, 0.09985902905464172, -0.0104551762342453, 0.07554961740970612, 0.07100258767604828]","[-0.031735848635435104, 0.001362798037007451, -0.020254407078027725, 0.07987622916698456, -0.008033744990825653, -0.03011055290699005, 0.08103806525468826, -0.06208813562989235, -0.01998274214565754, 0.013350188732147217, 0.04985612630844116, 0.046200867742300034, 0.051254794001579285, -0.012868992052972317, -0.01734216883778572, 0.06183820962905884, 0.015839651226997375, 0.04736386239528656, 0.03290864825248718, 0.07526879012584686, -0.0003654584288597107, 0.01747901365160942, 0.07067891955375671, 0.053612884134054184, 0.008585554547607899, -0.043475229293107986, -0.037068046629428864, 0.0386781245470047, -0.0021839067339897156, -0.06763520836830139, -0.07594190537929535, 0.06579452008008957, 0.028032248839735985, -0.07102134078741074, 0.03100595250725746, -0.041741300374269485, -0.006489135324954987, 0.029003487899899483, -0.050029829144477844, -0.034098315984010696, 0.02776464819908142, 0.00666084885597229, 0.06448501348495483, -0.022155126556754112, -0.03116685524582863, -0.05750691145658493, 0.03688092902302742, 0.004956409335136414, -0.07456852495670319, -0.06197794899344444, -0.03683790564537048, 0.05956324189901352, 0.003108332399278879, -0.07324780523777008, 0.07106445729732513, 0.031187377870082855, -0.06394945085048676, -0.06705270707607269, -0.07294099032878876, 0.05307254195213318, -0.05172033980488777, -0.00950700044631958, -0.03517095372080803, -0.04101134091615677, 0.008854866027832031, -0.06732667237520218, -0.05685579031705856, -0.08595879375934601, -0.077409528195858, -0.04891091212630272, -0.046195752918720245, -0.012092883698642254, 0.038070812821388245, -0.01727459952235222, 0.056602925062179565, -0.024364518001675606, 0.0405840128660202, 0.05598298832774162, 0.0679297149181366, 0.009648189879953861, 0.03665268048644066, 0.0628322958946228, -0.064162977039814, 0.07216529548168182, -0.0269191674888134, -0.06806822866201401, -0.00034359650453552604, -0.051019005477428436, -0.03275948390364647, 0.047457028180360794, 0.04991455748677254, 0.06229714676737785, 0.06330153346061707, 0.06977258622646332, 0.05729733034968376, -0.03583107143640518, 0.018217260017991066, 0.07853032648563385, 0.025594215840101242, 0.022781003266572952, -0.057742465287446976, -0.01583823934197426, 0.06044967845082283, -0.0762363001704216, 0.030793197453022003, 0.0328671969473362, -0.04352298378944397, -0.008119441568851471, 0.010291419923305511, 0.022097501903772354, -0.023270567879080772, 0.019449632614850998, 0.01635635457932949, -0.010085933841764927, 0.03987337648868561, 0.0272379070520401, -0.020890850573778152, 0.03110663592815399, -0.055475685745477676, 0.03643958270549774, 0.03711726889014244, -0.0123398806899786, -0.04810507968068123, -0.041238147765398026, -0.06406836211681366, -0.024387497454881668, 0.05545990169048309, -0.0028561800718307495, 0.007566733751446009, 0.06441166251897812, 0.027848977595567703, 0.06659199297428131, -0.0741242915391922, 0.07800030708312988, -0.07174766808748245, -0.003896251553669572, -0.07145822048187256, 0.015771977603435516, -0.024246808141469955, -0.005868155974894762, -0.024959459900856018, -0.051204413175582886, -0.04806210473179817, 0.03645149618387222, -0.04234766960144043, -0.03994853422045708, 0.0727163553237915, 0.028673119843006134, 0.03791793808341026, 0.04475748538970947, 0.019409142434597015, 0.03133832663297653, 0.02877812832593918, -0.06370809674263, -0.04578360915184021, 0.00466117262840271, 0.06352920830249786, 0.02446911484003067, 0.02730954997241497, 0.016362706199288368, 0.010070914402604103, -0.06550463289022446, 0.06533738225698471, -0.0528898723423481, 0.07249803841114044, -0.006108335684984922, -0.026202544569969177, -0.0029219691641628742, -0.03901641443371773, 0.012071162462234497, -0.003702715039253235, 0.052963241934776306, -0.0512542724609375, -0.07339788973331451, -0.05862291529774666, 0.021731117740273476, 0.07057087868452072, 0.015036928467452526, 0.04425228387117386, -0.028841573745012283, -0.04781070351600647, 0.012304455041885376, 0.031558625400066376, 0.06976234912872314, 0.02654777094721794, 0.050268128514289856, 0.07193329185247421, -0.018818367272615433, 0.030817793682217598, -0.00802978128194809, 0.07374551892280579, -0.000507064163684845, 0.0177773404866457, 0.04800815135240555, 0.03357096016407013, 0.029308810830116272, -0.015841709449887276, -0.06762763112783432, -0.07526255398988724, 0.019602373242378235]","[0.03180847316980362, -0.05065954104065895, -0.05715152621269226, -0.012257114052772522, -0.01702805608510971, -0.018424078822135925, 0.02681168168783188, 0.04361753910779953, 0.0777670294046402, 0.04883916676044464, 0.04793287813663483, 0.06729781627655029, 0.06398424506187439, 0.011226899921894073, 0.017854146659374237, -0.04159673675894737, -0.07495458424091339, -0.05243859812617302, -0.06162349134683609, -0.03573143109679222, 0.029615066945552826, -0.057088933885097504, -0.022519655525684357, 0.04539155215024948, -0.006373800337314606, -0.0615578293800354, -0.06523288041353226, -0.006438329815864563, -0.03801509365439415, -0.052609413862228394, 0.026585653424263, -0.009224683046340942, -0.02978048473596573, 0.07752810418605804, 0.023676112294197083, 0.06365637481212616, 0.02465752512216568, -0.022982560098171234, 0.0657198578119278, 0.002007134258747101, -0.0668376237154007, -0.0437270849943161, 0.05153842270374298, 0.055311158299446106, -0.0242934450507164, -0.060866862535476685, 0.014384426176548004, 0.012831032276153564, -0.0213681161403656, 0.0100012868642807, -0.035843078047037125, -0.06482677906751633, 0.0449654757976532, 0.04423794895410538, 0.025021255016326904, 0.06566978991031647, 0.012681365013122559, 0.04417220503091812, 0.058066368103027344, 0.06642307341098785, -0.033082831650972366, -0.013780035078525543, -0.06395144760608673, -0.012833990156650543, 0.0465637743473053, -0.06788227707147598, 0.04572562128305435, 0.013046026229858398, -0.026891738176345825, -0.018848683685064316, -0.009678363800048828, 0.034190788865089417, -0.01724044233560562, -0.06781709939241409, 0.057915642857551575, -0.06119026616215706, 0.008899658918380737, 0.06546129286289215, -0.07239910960197449, -0.05653579533100128, 0.07336792349815369, -0.07298225909471512, 0.074186772108078, -0.025912616401910782, 0.018686659634113312, 0.06490828096866608, 0.0012225806713104248, -0.03622383996844292, 0.034914225339889526, -0.04739154130220413, -0.008364483714103699, 0.035619594156742096, 0.009914077818393707, 0.05816851556301117, 0.04168535768985748, 0.0706792026758194, -0.032571952790021896, 0.07360479235649109, -0.06316592544317245, 0.04885505139827728, 0.026182956993579865, 0.05892404913902283, -0.03872355818748474, 0.04624500870704651, -0.022558100521564484, -0.01328054815530777, -0.009746730327606201, -0.07682594656944275, -0.029210492968559265, -0.02712121605873108, 0.0020110085606575012, 0.0151313915848732, -0.055581990629434586, -0.060467429459095, -0.060856010764837265, -0.06602136045694351, -0.04184821993112564, 0.04127251356840134, 0.020101487636566162, 0.07036912441253662, -0.07717124372720718, -0.01263294368982315, 0.0006910786032676697, -0.03712015599012375, -0.05121573433279991, -0.03270525485277176, -0.03789668530225754, -0.058142900466918945, 0.03129936009645462, 0.024544835090637207, 0.04961845278739929, -0.05016975477337837, 0.03395892679691315, 0.027780920267105103, -0.020014800131320953, -0.06427890807390213, -0.020774558186531067, -0.07411803305149078, -0.06494925916194916, -0.02828286588191986, 0.05083534121513367, -0.04416608437895775, -0.06408310681581497, -0.04274716228246689, 0.06772875785827637, 0.03329019248485565, -0.018487896770238876, 0.00039236247539520264, -0.07486963272094727, 0.056879520416259766, -0.05879547819495201, 0.008842132985591888, -0.060110703110694885, 0.03906157612800598, 0.052319273352622986, -0.0054846033453941345, -0.04877632111310959, -0.04911120980978012, -0.04138064756989479, 0.005024582147598267, -0.0075485557317733765, -0.05378809571266174, 0.0007386058568954468, -0.03542623668909073, 0.07752358913421631, 0.04755149781703949, -0.016379836946725845, -0.0072543323040008545, -0.07479619234800339, 0.06470489501953125, 0.008246466517448425, -0.04719192534685135, 0.03355282545089722, 0.07697317004203796, -0.006218664348125458, 0.07790343463420868, -0.00806969404220581, 0.059158846735954285, 0.0004659891128540039, 0.0029532909393310547, -0.060710273683071136, 0.06305505335330963, 0.07589110732078552, 0.02402094006538391, -0.029876399785280228, 0.03793438524007797, -0.00629088282585144, 0.028225690126419067, 0.05954408645629883, 0.028810441493988037, 0.02062024176120758, 0.04715411365032196, 0.06735588610172272, -0.028790540993213654, -0.010332189500331879, 0.0372464582324028, -0.036381885409355164, 0.042945101857185364, -0.01748073473572731, -0.06254613399505615]","[0.01194002479314804, -0.06082335487008095, 0.04357556253671646, -0.0715794637799263, 0.05427664518356323, 0.03947443515062332, 0.07458065450191498, -0.04556793347001076, 0.0572369247674942, 0.043254874646663666, 0.00014478713274002075, -0.0019055455923080444, 0.059753403067588806, 0.019107595086097717, -0.02357162907719612, 0.038448117673397064, 0.04934701323509216, 0.027063317596912384, 0.009545981884002686, -0.07310392707586288, -0.010532528162002563, 0.03278578817844391, -0.04983633756637573, 0.03333861380815506, -0.058961525559425354, -0.0714111253619194, -0.07539285719394684, 0.028096862137317657, -0.02185773476958275, 0.06022614240646362, 0.06104506552219391, 0.03366094082593918, -0.06545437127351761, -0.0662900060415268, -0.060037124902009964, -0.028517946600914, 0.052588194608688354, -0.013926811516284943, -0.0021558329463005066, -0.05592717230319977, 0.07782559096813202, -0.07480718940496445, 0.03142152726650238, 0.06369414925575256, 0.03761950880289078, 0.007048420608043671, -0.068062923848629, -0.04080434516072273, 0.0767786055803299, 0.06934191286563873, -0.021195683628320694, -0.01224101334810257, -0.018642477691173553, -0.05595482140779495, 0.059053704142570496, 0.06977257132530212, 0.06478078663349152, -0.055228427052497864, -0.025169149041175842, -0.043199021369218826, -0.013610206544399261, -0.004195816814899445, -0.0015114322304725647, 0.028136834502220154, 0.06493456661701202, -0.01259872317314148, 0.04444754123687744, -0.07633013278245926, 0.05030126869678497, 0.016483962535858154, -0.04158297926187515, 0.05702020227909088, 0.06326331198215485, -0.02945037931203842, -0.04778725653886795, 0.012559108436107635, 0.009971611201763153, -0.0580296516418457, 0.0649898499250412, -0.03409980610013008, 0.034575872123241425, -0.049589768052101135, 0.05864064395427704, 0.07332834601402283, -0.05870436504483223, 0.07233980298042297, -0.006800644099712372, -0.01777150109410286, 0.07056687772274017, 0.055057093501091, -0.017523575574159622, -0.059643909335136414, -0.007709003984928131, 0.03206997364759445, -0.00782342255115509, 0.03245896100997925, 0.04670432209968567, -0.052545905113220215, -0.07279044389724731, -0.0401107557117939, -0.057848263531923294, -0.05392777919769287, -0.07534264773130417, -0.007313065230846405, -0.04967762529850006, -0.06759653985500336, 0.040815629065036774, -0.00018388032913208008, 0.055113375186920166, -0.061601877212524414, 0.05345796048641205, -0.06132090464234352, -0.031796131283044815, 0.04432249069213867, -0.012425974011421204, -0.0065819621086120605, -0.036759015172719955, -0.020478039979934692, -0.016348019242286682, 0.06347623467445374, 0.012549273669719696, -0.0011842846870422363, 0.0040894001722335815, 0.015098832547664642, 0.026467129588127136, 0.0562073290348053, -0.03728102892637253, -0.027840126305818558, -0.07104048877954483, 0.026466891169548035, -0.06274721771478653, -0.025622855871915817, 0.009779885411262512, 0.058305129408836365, -0.05443158745765686, -0.06293933093547821, 0.019711211323738098, 0.0036598965525627136, 0.0051626116037368774, -0.07140153646469116, 0.04599205404520035, 0.024886280298233032, -0.03404499590396881, -0.03197517246007919, 0.005095683038234711, -0.05306378751993179, 0.05974745750427246, -0.06434598565101624, -0.04740909859538078, 0.07122959196567535, 0.06443969905376434, -0.017357025295495987, 0.02417634427547455, 0.05995893478393555, -0.0648215115070343, 0.06868548691272736, 0.06901393830776215, -0.006719917058944702, -0.017487365752458572, -0.02453647553920746, 0.0045897215604782104, -0.005635492503643036, -0.009327001869678497, 0.020650774240493774, -0.013233073055744171, 0.045589081943035126, 0.032753437757492065, -0.057971250265836716, 0.07690255343914032, -0.07469349354505539, 0.0139956995844841, -0.0780845582485199, 0.021631084382534027, 0.05856296420097351, -0.03515021502971649, -0.059472888708114624, -0.0281527116894722, -0.025275155901908875, 0.026244938373565674, 0.03316888213157654, 0.0016345828771591187, -0.03895137831568718, -0.007414571940898895, -0.021609507501125336, -0.026373617351055145, -0.035825952887535095, -0.004234001040458679, 0.005523756146430969, -0.0623716302216053, 0.05517914891242981, 0.05688980221748352, 0.050227969884872437, 0.0634545236825943, 0.03185304254293442, -0.06262830644845963, -0.07732395827770233, 0.00078573077917099, 0.04514852166175842, -0.059233151376247406, 0.02205973118543625]","[0.0731269121170044, 0.010464094579219818, -0.03029901534318924, -0.0022936761379241943, 0.07767146825790405, -0.007224097847938538, -0.06842510402202606, -0.050135426223278046, 0.04353797435760498, -0.07431074231863022, -0.013903170824050903, -0.04809073358774185, 0.026909537613391876, -0.035129234194755554, -0.008072584867477417, 0.03136973828077316, 0.014437563717365265, -0.05813640356063843, -0.008082203567028046, -0.0015900135040283203, -0.04495540261268616, -0.06254824995994568, 5.002319812774658e-05, 0.007532879710197449, 0.05969586968421936, 0.046985968947410583, -0.05767195671796799, 0.07150575518608093, 0.017713934183120728, -0.006424553692340851, -0.02494538575410843, -0.03473769128322601, 0.05323067307472229, -0.06741494685411453, -0.07488761842250824, -0.015242241322994232, -0.07176468521356583, -0.07502751052379608, -0.03899382799863815, -0.0006263777613639832, -0.06801408529281616, -0.027860194444656372, 0.026464566588401794, 0.02655286341905594, -0.06398940831422806, -0.049531105905771255, 0.06707257032394409, 0.04179994761943817, -0.0559072345495224, -0.017446331679821014, 0.02066563069820404, 0.0026600658893585205, -0.018277764320373535, 0.034665532410144806, -0.07766050845384598, -0.016984954476356506, -0.009054981172084808, 0.06784325838088989, -0.04957904666662216, 0.02417401224374771, -0.04366978257894516, 0.06865569949150085, 0.048269614577293396, 0.00719238817691803, -0.009675107896327972, 0.054350078105926514, -0.05704639479517937, 0.021641157567501068, -0.03558243811130524, -0.029644019901752472, -0.020075269043445587, -0.03582775592803955, 0.01586052030324936, 0.0580417662858963, -0.0077177733182907104, 0.02806895226240158, -0.03998391702771187, 0.0253308042883873, -0.07372939586639404, 0.03442635387182236, 0.0715692788362503, -0.021723948419094086, -0.06090696528553963, 0.01415502279996872, 0.051838889718055725, -0.041512977331876755, -0.020496487617492676, -0.045189425349235535, 0.02710166573524475, 0.0682208389043808, -0.06226175278425217, 0.0683489441871643, -0.04812389239668846, 0.05048851668834686, -0.026347480714321136, 0.042981162667274475, 0.05326484143733978, -0.017655033618211746, -0.004486784338951111, 0.030748121440410614, 0.07798393070697784, 0.0018256530165672302, 0.031343504786491394, 0.0699692964553833, -0.036108266562223434, 0.05568307638168335, 0.024879872798919678, -0.033090148121118546, 0.05088317394256592, -0.04411959648132324, -0.04100935906171799, -0.03188806399703026, 0.07023642957210541, 0.023016907274723053, 0.047617554664611816, -0.0018830150365829468, -0.04862116277217865, -0.009899765253067017, 0.01784171164035797, 0.034068040549755096, -0.03416958451271057, 0.026683449745178223, -0.04694720357656479, 0.027981877326965332, 0.056550532579422, 0.07399140298366547, 0.017292648553848267, 0.06396535038948059, 0.04418341815471649, 0.06719064712524414, 0.03261430561542511, 0.07659031450748444, 0.056902289390563965, 0.06830359995365143, 0.06206353008747101, -0.04465735703706741, 0.020924262702465057, -0.07418082654476166, 0.008364133536815643, 0.010947473347187042, -0.012609295547008514, -0.027900781482458115, -0.0510583221912384, 0.043313466012477875, -0.04951723664999008, 0.02080453187227249, -0.04244950786232948, 0.06536504626274109, -0.06371159851551056, -0.007646806538105011, -0.04507431387901306, 0.06683062016963959, -0.01886320486664772, 0.06066693365573883, 0.04461340606212616, 0.07246315479278564, -0.07083365321159363, -0.021236173808574677, 0.0032807141542434692, 0.029749467968940735, 0.047861501574516296, 0.05836056172847748, -0.01698489859700203, 0.011883683502674103, -0.02586018666625023, 0.062398865818977356, -0.013753429055213928, -0.0008515790104866028, 0.018978431820869446, 0.03365363925695419, 0.0349770188331604, -0.01371939480304718, 0.010994389653205872, -0.04300834238529205, -0.022933222353458405, -0.04726933687925339, -0.05585896223783493, -0.04068133980035782, 0.043249793350696564, -0.06715534627437592, 0.030879072844982147, -0.045239951461553574, 0.037581272423267365, -0.07666625082492828, 0.047780901193618774, 0.03623748570680618, 0.039049938321113586, -0.06978759914636612, 0.03883960098028183, -0.05082855001091957, 0.03528091311454773, -0.0463227741420269, -0.049296826124191284, 0.06714048981666565, -0.033174801617860794, 0.014991745352745056, 0.03722871094942093, -0.03623970225453377, 0.03760819137096405, 0.000464022159576416]","[0.04336404800415039, 0.00031651556491851807, -0.07497052103281021, -0.009391359984874725, -0.04585294798016548, 0.0758073478937149, 0.0003045275807380676, -0.013178452849388123, 0.004275195300579071, 0.03335602581501007, -0.049467042088508606, 0.019736789166927338, -0.04036452993750572, 0.06411957740783691, -0.04226025938987732, 0.060661330819129944, -0.03988161310553551, 0.05098062753677368, 0.046893492341041565, -0.05640063434839249, 0.03296617418527603, 0.018256425857543945, -0.05923032388091087, -0.05298352986574173, 0.06118589639663696, -0.05498199164867401, -0.06201775372028351, 0.07467730343341827, 0.040322475135326385, -0.029003620147705078, 0.025951430201530457, -0.06904452294111252, -0.06075644493103027, 0.006962113082408905, 0.06319066882133484, 0.04590781033039093, -0.06349661946296692, -0.041121065616607666, -0.018991127610206604, -0.015035271644592285, -0.004246711730957031, 0.07610815763473511, -0.04172493889927864, -0.030398879200220108, -0.02633422240614891, -0.025468163192272186, -0.06019209697842598, -0.07134465873241425, 0.006676316261291504, 0.015089519321918488, 0.06271468102931976, -0.06286007910966873, -0.014915131032466888, -0.039971645921468735, 0.05929054319858551, 0.0634799599647522, 0.061554551124572754, 0.04193981736898422, -0.03803817927837372, 0.023179754614830017, -0.07736533135175705, -0.06139044091105461, -0.05674231797456741, -0.035409312695264816, 0.04908081889152527, -0.002542369067668915, -0.05384450405836105, 0.038135431706905365, -0.07139747589826584, -0.016399532556533813, -0.028181586414575577, 0.05595561861991882, -0.015082314610481262, 0.05267304182052612, -0.07385065406560898, -0.0521826446056366, 0.03315705806016922, 0.016801200807094574, -0.03942999243736267, -0.027883000671863556, -0.07570759952068329, -0.022877611219882965, 0.06475503742694855, -0.06534932553768158, -0.027067895978689194, -0.025023914873600006, -0.0014839693903923035, 0.00048326700925827026, 0.014760628342628479, -0.05792953073978424, 0.04143041372299194, -0.00750385969877243, -0.05933026224374771, -0.006806418299674988, -0.026890862733125687, -0.06625290215015411, -0.011984050273895264, 0.0278836190700531, 0.002509601414203644, -0.02376340702176094, -0.03357585519552231, 0.048707619309425354, 0.06163552403450012, -0.07606278359889984, -0.007335834205150604, -0.05513820797204971, -0.021539956331253052, 0.057310551404953, 0.006261855363845825, 0.06101249158382416, 0.026977770030498505, 0.013296164572238922, 0.03715258836746216, 0.0674373060464859, -0.04474746808409691, -0.04421260952949524, -0.06700975447893143, -0.003001287579536438, -0.003986760973930359, 0.05047670006752014, -0.05188022553920746, 0.07267612218856812, -0.007233813405036926, -0.07436402142047882, 0.02873675525188446, 0.014226719737052917, -0.05560343712568283, -0.07369385659694672, 0.05029916763305664, 0.07217530906200409, 0.0015347972512245178, -0.06166448816657066, -0.0509357824921608, 0.022019609808921814, 0.030248671770095825, -0.023962128907442093, -0.023405302315950394, -0.0348040796816349, 0.07548916339874268, -0.05994778126478195, -0.03018554300069809, 0.061159029603004456, 0.07494400441646576, 0.0761183500289917, -0.07736879587173462, -0.06090676039457321, -0.06424824148416519, 0.06971904635429382, -0.0022304877638816833, 0.05415976047515869, -0.0256415456533432, 0.046907246112823486, 0.03245996683835983, 0.03796771168708801, -0.018862757831811905, 0.03456112742424011, -0.011901408433914185, 0.045563578605651855, 0.022999443113803864, 0.031088411808013916, 0.003750912845134735, 0.0647510439157486, -0.050359390676021576, 0.022574320435523987, 0.028967276215553284, -0.05080972611904144, -0.012558415532112122, -0.04417554289102554, -0.04233042895793915, -0.02985059842467308, 0.01790349930524826, -0.009314917027950287, -0.052619390189647675, -0.07422016561031342, -0.032736435532569885, 0.012981459498405457, 0.04755660891532898, 0.013947777450084686, -0.020990870893001556, 0.013701319694519043, 0.007310464978218079, -0.04736395180225372, -0.040234655141830444, -0.032042454928159714, 0.04295433312654495, 0.002741798758506775, -0.047421906143426895, 0.015533752739429474, -0.04468077793717384, 0.014899827539920807, -0.0624595582485199, 0.06605619192123413, -0.009605124592781067, 0.06169307231903076, 0.019142091274261475, 0.054330453276634216, 0.067898690700531, 0.04523926228284836, 0.023409008979797363, -0.013428963720798492]","[-0.04043354466557503, 0.076325923204422, -0.03872258961200714, -0.07156335562467575, -0.07388731092214584, 0.012672148644924164, 0.007458411157131195, 0.07452349364757538, 0.06207868456840515, 0.0343872606754303, -0.047423433512449265, -0.05340556427836418, 0.004302993416786194, 0.0744800716638565, 0.03002973645925522, -0.017130021005868912, -0.04994858056306839, -0.04869775474071503, -0.027304355055093765, -0.0676283910870552, 0.026626981794834137, 0.01803869754076004, -0.05656636506319046, -0.008329689502716064, -0.026962783187627792, -0.039567314088344574, 0.006796844303607941, 0.07143184542655945, 0.020225174725055695, 0.027717046439647675, -0.05532974377274513, 0.045472368597984314, -0.0012836307287216187, 0.0160236656665802, 0.027107901871204376, -0.06950099766254425, 0.07071107625961304, -0.05784435570240021, -0.027745716273784637, -0.023954235017299652, 0.03888119012117386, 0.0510798841714859, -0.0739964097738266, 0.02789407968521118, 0.002927526831626892, -0.07456441968679428, 0.00690557062625885, -0.06706186383962631, -0.044304728507995605, 0.013734161853790283, -0.0436689630150795, -0.02304256334900856, -0.04455278441309929, -0.01944972574710846, 0.04264591634273529, 0.008240550756454468, 0.0209570974111557, 0.06593072414398193, 0.010556884109973907, 0.030811063945293427, 0.025972433388233185, -0.0031713172793388367, 0.04540417343378067, 0.053844451904296875, 0.04304848611354828, 0.0696546733379364, -0.06368869543075562, 0.0698707103729248, -0.07513204962015152, -0.05427086353302002, 0.0019480660557746887, 0.04158297926187515, -0.024420544505119324, -0.018560823053121567, -0.028491996228694916, 0.023056209087371826, -0.07539490610361099, -0.008361950516700745, -0.05590308457612991, -0.05060240626335144, -0.06699545681476593, -0.05544155836105347, -0.04324590042233467, -0.008820146322250366, 0.04543772339820862, 0.02066577970981598, -0.031178798526525497, 0.05110521614551544, 0.008791826665401459, -0.0067637041211128235, -0.036895424127578735, 0.07142838835716248, 0.05531872808933258, -0.06653734296560287, 0.008844830095767975, 0.061374470591545105, 0.06743042171001434, 0.05740182101726532, -0.013813026249408722, 0.07423298060894012, -0.05118617042899132, 0.07422085106372833, -0.05704399198293686, 0.027696341276168823, -0.05176232010126114, 0.05192510783672333, -0.015094347298145294, -0.03988775610923767, -0.03608478978276253, 0.008107863366603851, 0.0729777067899704, -0.05897009000182152, 0.05810543894767761, 0.045522697269916534, 0.004994966089725494, 0.0005546882748603821, -0.07438558340072632, 0.007069401443004608, 0.005501173436641693, -0.030193418264389038, -0.06669633090496063, -0.003267325460910797, -0.020863324403762817, -0.0635073110461235, 0.026705659925937653, 0.03541294485330582, 0.01189073920249939, 0.03415989875793457, -0.04842778295278549, 0.07279595732688904, -0.05080015957355499, -0.015331253409385681, 0.02219405770301819, 0.02383994311094284, 0.05052441358566284, -0.02158314734697342, 0.0450374111533165, 0.017153777182102203, 0.04065663367509842, -0.025574691593647003, 0.016501925885677338, 0.005130834877490997, 0.03965379297733307, 0.01134897768497467, -0.0018929913640022278, -0.05123673379421234, -0.029772646725177765, -0.02515149861574173, 0.07609914243221283, -0.03018062561750412, -0.028980962932109833, 0.050163865089416504, -0.013791128993034363, 0.06512753665447235, -0.02574099972844124, -0.011939018964767456, 0.06533549726009369, -0.035518746823072433, 0.006542310118675232, 0.015140406787395477, -0.06798761337995529, -0.015698906034231186, -0.03160872682929039, -0.04102693498134613, 0.060225993394851685, -0.05608830600976944, 0.03686197102069855, -0.004771068692207336, 0.06941273808479309, 0.005466297268867493, 0.05265022814273834, 0.015969380736351013, -0.07628273218870163, -0.013223744928836823, -0.07537438720464706, 0.060607895255088806, 0.05166882276535034, -0.03265766799449921, 0.07202555239200592, -0.013717494904994965, -0.0001672804355621338, 0.06656570732593536, -0.015032514929771423, -0.06992842257022858, -0.04458585008978844, 0.05139635503292084, 0.029586829245090485, 0.07160407304763794, 0.008572757244110107, 0.06561236083507538, -0.03631439805030823, -0.04738929122686386, -0.04859253019094467, 0.023324184119701385, -0.05160610377788544, 0.06445904076099396, 0.05900368094444275, 0.0008758008480072021, -0.01465095579624176, -0.01978372409939766]","[0.052846282720565796, -0.013841584324836731, 0.06476439535617828, -0.057492561638355255, 0.023841284215450287, 0.06451469659805298, -0.049827978014945984, -0.05461578816175461, 0.06394913792610168, -0.0749262124300003, 0.04185754805803299, 0.060533612966537476, -0.07119636982679367, -0.024488776922225952, 0.074864462018013, 0.046884313225746155, -0.04969193786382675, 0.019333869218826294, -0.001781567931175232, 0.013107925653457642, -0.0334928035736084, 0.0197361558675766, 0.07585076987743378, 0.028378933668136597, 0.06087610125541687, -0.06802203506231308, -0.01219777762889862, -0.05918238312005997, -0.04661281406879425, 0.006747767329216003, 0.07310961186885834, 0.015625253319740295, 0.009049080312252045, 0.05521070957183838, -0.03932221606373787, 0.008673012256622314, 0.06890474259853363, 0.07484041154384613, -0.012008145451545715, 0.03218270093202591, -0.050976574420928955, 0.03290984034538269, 0.04359922558069229, 0.07611076533794403, 0.04278625547885895, -0.06497672200202942, -0.06992771476507187, 0.025472387671470642, 0.04683670401573181, 0.031654879450798035, -0.05264076590538025, 0.07230517268180847, -0.03432699292898178, 0.027590058743953705, -0.04969862475991249, -0.038876723498106, -0.03251967579126358, 0.02519889920949936, -0.017784852534532547, 0.07339052855968475, 0.07778225839138031, -0.024469099938869476, -0.05772791802883148, -0.057570382952690125, 0.018695764243602753, 0.06239771842956543, 0.013157464563846588, 0.06509581208229065, -0.010543830692768097, 0.07740224897861481, 0.05915842950344086, -0.04617292433977127, -0.07245220988988876, 0.07278847694396973, 0.011289305984973907, -0.0678371861577034, -0.07404352724552155, 0.052309781312942505, -0.0704570934176445, 0.07044963538646698, 0.033536478877067566, -0.037013087421655655, 0.01125037670135498, 0.056273967027664185, -0.00837300717830658, -0.07730612903833389, 0.0023717954754829407, 0.0743466317653656, 0.031583480536937714, 0.014146387577056885, -0.047032710164785385, 0.008356481790542603, 0.0064097195863723755, 0.042196571826934814, -0.013215780258178711, 0.07395371794700623, 0.03413847088813782, -0.061379846185445786, -0.01972964033484459, -0.0180056169629097, 0.028651393949985504, -0.013583287596702576, 0.0012378692626953125, -0.052721358835697174, 0.030928485095500946, 0.039722196757793427, 0.07189013063907623, 0.0712018609046936, 0.062367141246795654, -0.06153496727347374, -0.030960042029619217, -0.005850248038768768, -0.026144810020923615, -0.010305695235729218, -0.03199559822678566, 0.041566334664821625, 0.03593757748603821, 0.059798017144203186, 0.07565082609653473, 0.021663963794708252, 0.07355387508869171, -0.01778174191713333, 0.002652972936630249, -0.03198409080505371, 0.07506564259529114, -0.030131906270980835, -0.019980639219284058, 0.019944652915000916, -0.020971547812223434, 0.007510185241699219, 0.036476291716098785, -0.07359849661588669, 0.037561386823654175, 0.026895985007286072, -0.06472812592983246, 0.06348834931850433, 0.05244681239128113, 0.04583016037940979, -0.025066211819648743, 0.052693769335746765, -0.05390277877449989, 0.06235118210315704, 0.041403621435165405, -0.030962035059928894, 0.06923148036003113, -0.0389934740960598, 0.010602310299873352, 0.035528331995010376, 0.03551366180181503, -0.03150167688727379, -0.03436262533068657, -0.019937705248594284, -0.039863258600234985, -0.07069191336631775, -0.027527950704097748, -0.05357969552278519, 0.06481575965881348, 0.03888586163520813, -0.0168440043926239, 0.07801760733127594, -0.05260065943002701, -0.031402818858623505, -0.06051209196448326, -0.055274300277233124, 0.03604643791913986, -0.0734754353761673, -0.015247806906700134, -0.0032399967312812805, 0.036584943532943726, -0.03126942738890648, -0.06336332112550735, -0.05922631919384003, 0.053192272782325745, -0.0074932873249053955, 0.013136059045791626, -0.01055143028497696, -0.025370515882968903, 0.034138135612010956, -0.011401809751987457, 0.013233944773674011, -0.03804156556725502, 0.0246671661734581, -0.011182166635990143, -0.04670366644859314, -0.06840622425079346, -0.049460042268037796, 0.03996090590953827, -0.009785287082195282, 0.022778719663619995, -0.05486263334751129, -0.03925349935889244, 0.009528793394565582, 0.07381090521812439, -0.07337883114814758, -0.0633196234703064, 0.025078147649765015, -0.009993597865104675, -0.034859225153923035, -0.044055867940187454, 0.014824450016021729]","[-0.039426401257514954, -0.022552981972694397, 0.006523095071315765, -0.034495797008275986, 0.03230352699756622, 0.016414910554885864, -0.03914555907249451, -0.011105142533779144, 0.019703224301338196, 0.044796377420425415, 0.010574772953987122, 0.018074780702590942, 0.002487264573574066, 0.06105107069015503, 0.04015800356864929, 0.006226725876331329, -0.054164446890354156, -0.015416331589221954, 0.07499685883522034, 0.003398396074771881, 0.03815673291683197, -0.013532347977161407, 0.011863820254802704, 0.00580984354019165, -0.06150124967098236, 0.0615878701210022, 0.032775066792964935, -0.026976875960826874, -0.02377573400735855, -0.006646826863288879, -0.03358658030629158, -0.0776042640209198, 0.0010235458612442017, -0.015863221138715744, 0.043845102190971375, 0.026166819036006927, 0.028451204299926758, -0.07146678864955902, 0.03649292141199112, 0.054759979248046875, -0.02170088142156601, -0.026348352432250977, 0.0606679767370224, -0.03650302812457085, -0.04481774568557739, -0.02067139744758606, 0.07736149430274963, 0.021150700747966766, -0.07065027207136154, 0.052933469414711, 0.060700997710227966, 0.07450680434703827, 0.016003303229808807, -0.011954709887504578, 0.0383758619427681, 0.06312960386276245, 0.0422014519572258, 0.07502622902393341, -0.07637444138526917, 0.026949025690555573, -0.040175359696149826, -0.06507579982280731, 0.0030104443430900574, 0.058647096157073975, -0.0253814235329628, 0.008132606744766235, -0.0011370182037353516, 0.022390469908714294, -0.06747104227542877, 0.06527890264987946, -0.004134118556976318, -0.04105287045240402, -0.07445519417524338, 0.061381593346595764, -0.033934127539396286, 0.035425178706645966, 0.02791513502597809, -0.06641113758087158, 0.06448836624622345, 0.0670897364616394, -0.041735660284757614, -0.07201360166072845, -0.01712769642472267, 0.03810873627662659, -0.07033298909664154, 0.013855360448360443, -0.029733028262853622, -0.007436595857143402, -0.056482139974832535, 0.004414252936840057, -0.048118699342012405, -0.032371386885643005, 0.027301281690597534, -0.0630161240696907, -0.06828869879245758, 0.017746537923812866, -0.002531178295612335, 0.022306136786937714, -0.0671173483133316, -0.03397192433476448, -0.04476913809776306, -0.038574766367673874, 0.058174893260002136, 0.05979442596435547, 0.07048378884792328, -0.02369549125432968, 0.058214664459228516, -0.00220615416765213, -0.0006875544786453247, 0.06316152215003967, -0.0335485078394413, -0.050659727305173874, 0.07115042209625244, 0.023145683109760284, 0.02497781813144684, -0.010174781084060669, -0.022713351994752884, 0.008239857852458954, 0.04628053307533264, 0.06112237274646759, -0.020847052335739136, 0.03733747452497482, 0.013271644711494446, 0.01942697912454605, -0.04119482636451721, 0.0428585484623909, 0.014748901128768921, -0.011628761887550354, 0.025697246193885803, -0.01507531851530075, -0.023534879088401794, -0.0366729311645031, 0.03158262372016907, -0.020208682864904404, -0.027149423956871033, -0.03886400908231735, 0.028207242488861084, 0.01924794912338257, 0.06506459414958954, 0.02589760720729828, -0.006897620856761932, -0.03775281086564064, 0.012611925601959229, 0.014704756438732147, -0.06030841916799545, 0.04705263674259186, -0.03445649519562721, 0.0708220899105072, 0.06790947914123535, -0.0439705066382885, 0.02494773268699646, 0.024642467498779297, 0.06423111259937286, -0.04673626646399498, -0.0681137666106224, 0.07210548222064972, 0.049736931920051575, -0.02413828670978546, -0.05653724819421768, -0.011865310370922089, -0.03685621917247772, 0.05277635157108307, -0.06302107870578766, -0.038570765405893326, 